0 0.200952 0.228257 -0.146194 -0.208637 0.299314 0.193799 
1 -0.271147 0.200952 0.0383584 0.228257 -0.148163 -0.146194 0.307223 -0.208637 0.267547 0.299314 -0.180914 0.193799 
2 -0.103328 -0.271147 0.200952 0.0441006 0.0383584 0.228257 0.0764953 -0.148163 -0.146194 0.0306497 0.307223 -0.208637 0.0803015 0.267547 0.299314 0.0841531 -0.180914 0.193799 
3 -0.103328 -0.271147 0.200952 0.0441006 0.0383584 0.228257 0.0764953 -0.148163 -0.146194 0.0306497 0.307223 -0.208637 0.0803015 0.267547 0.299314 0.0841531 -0.180914 0.193799 
4 -0.103328 -0.271147 0.200952 0.0441006 0.0383584 0.228257 0.0764953 -0.148163 -0.146194 0.0306497 0.307223 -0.208637 0.0803015 0.267547 0.299314 0.0841531 -0.180914 0.193799 
5 -0.103328 -0.271147 0.200952 0.0441006 0.0383584 0.228257 0.0764953 -0.148163 -0.146194 0.0306497 0.307223 -0.208637 0.0803015 0.267547 0.299314 0.0841531 -0.180914 0.193799 
6 -0.103328 -0.271147 0.200952 0.0441006 0.0383584 0.228257 0.0764953 -0.148163 -0.146194 0.0306497 0.307223 -0.208637 0.0803015 0.267547 0.299314 0.0841531 -0.180914 0.193799 
7 -0.103328 -0.271147 0.200952 0.0441006 0.0383584 0.228257 0.0764953 -0.148163 -0.146194 0.0306497 0.307223 -0.208637 0.0803015 0.267547 0.299314 0.0841531 -0.180914 0.193799 
8 -0.103328 -0.271147 0.200952 0.0441006 0.0383584 0.228257 0.0764953 -0.148163 -0.146194 0.0306497 0.307223 -0.208637 0.0803015 0.267547 0.299314 0.0841531 -0.180914 0.193799 
9 -0.103328 -0.271147 0.200952 0.0441006 0.0383584 0.228257 0.0764953 -0.148163 -0.146194 0.0306497 0.307223 -0.208637 0.0803015 0.267547 0.299314 0.0841531 -0.180914 0.193799 
10 -0.103328 -0.271147 0.200952 0.0441006 0.0383584 0.228257 0.0764953 -0.148163 -0.146194 0.0306497 0.307223 -0.208637 0.0803015 0.267547 0.299314 0.0841531 -0.180914 0.193799 
11 -0.103328 -0.271147 0.200952 0.0441006 0.0383584 0.228257 0.0764953 -0.148163 -0.146194 0.0306497 0.307223 -0.208637 0.0803015 0.267547 0.299314 0.0841531 -0.180914 0.193799 
12 -0.103328 -0.271147 0.200952 0.0441006 0.0383584 0.228257 0.0764953 -0.148163 -0.146194 0.0306497 0.307223 -0.208637 0.0803015 0.267547 0.299314 0.0841531 -0.180914 0.193799 
13 -0.103328 -0.271147 0.200952 0.0441006 0.0383584 0.228257 0.0764953 -0.148163 -0.146194 0.0306497 0.307223 -0.208637 0.0803015 0.267547 0.299314 0.0841531 -0.180914 0.193799 
14 -0.103328 -0.271147 0.200952 0.0441006 0.0383584 0.228257 0.0764953 -0.148163 -0.146194 0.0306497 0.307223 -0.208637 0.0803015 0.267547 0.299314 0.0841531 -0.180914 0.193799 
15 -0.103328 -0.271147 0.200952 0.0441006 0.0383584 0.228257 0.0764953 -0.148163 -0.146194 0.0306497 0.307223 -0.208637 0.0803015 0.267547 0.299314 0.0841531 -0.180914 0.193799 
16 -0.103328 -0.271147 0.200952 0.0441006 0.0383584 0.228257 0.0764953 -0.148163 -0.146194 0.0306497 0.307223 -0.208637 0.0803015 0.267547 0.299314 0.0841531 -0.180914 0.193799 
17 -0.103328 -0.271147 0.200952 0.0441006 0.0383584 0.228257 0.0764953 -0.148163 -0.146194 0.0306497 0.307223 -0.208637 0.0803015 0.267547 0.299314 0.0841531 -0.180914 0.193799 
18 -0.103328 -0.271147 0.200952 0.0441006 0.0383584 0.228257 0.0764953 -0.148163 -0.146194 0.0306497 0.307223 -0.208637 0.0803015 0.267547 0.299314 0.0841531 -0.180914 0.193799 
19 -0.103328 -0.271147 0.200952 0.0441006 0.0383584 0.228257 0.0764953 -0.148163 -0.146194 0.0306497 0.307223 -0.208637 0.0803015 0.267547 0.299314 0.0841531 -0.180914 0.193799 
20 -0.103328 -0.271147 0.200952 0.0441006 0.0383584 0.228257 0.0764953 -0.148163 -0.146194 0.0306497 0.307223 -0.208637 0.0803015 0.267547 0.299314 0.0841531 -0.180914 0.193799 
21 -0.103328 -0.271147 0.200952 0.0441006 0.0383584 0.228257 0.0764953 -0.148163 -0.146194 0.0306497 0.307223 -0.208637 0.0803015 0.267547 0.299314 0.0841531 -0.180914 0.193799 
22 -0.103328 -0.271147 0.200952 0.0441006 0.0383584 0.228257 0.0764953 -0.148163 -0.146194 0.0306497 0.307223 -0.208637 0.0803015 0.267547 0.299314 0.0841531 -0.180914 0.193799 
23 -0.103328 -0.271147 0.200952 0.0441006 0.0383584 0.228257 0.0764953 -0.148163 -0.146194 0.0306497 0.307223 -0.208637 0.0803015 0.267547 0.299314 0.0841531 -0.180914 0.193799 
24 -0.103328 -0.271147 0.200952 0.0441006 0.0383584 0.228257 0.0764953 -0.148163 -0.146194 0.0306497 0.307223 -0.208637 0.0803015 0.267547 0.299314 0.0841531 -0.180914 0.193799 
25 -0.103328 -0.271147 0.200952 0.0441006 0.0383584 0.228257 0.0764953 -0.148163 -0.146194 0.0306497 0.307223 -0.208637 0.0803015 0.267547 0.299314 0.0841531 -0.180914 0.193799 
26 -0.103328 -0.271147 0.200952 0.0441006 0.0383584 0.228257 0.0764953 -0.148163 -0.146194 0.0306497 0.307223 -0.208637 0.0803015 0.267547 0.299314 0.0841531 -0.180914 0.193799 
27 -0.103328 -0.271147 0.200952 0.0441006 0.0383584 0.228257 0.0764953 -0.148163 -0.146194 0.0306497 0.307223 -0.208637 0.0803015 0.267547 0.299314 0.0841531 -0.180914 0.193799 
28 -0.103328 -0.271147 0.200952 0.0441006 0.0383584 0.228257 0.0764953 -0.148163 -0.146194 0.0306497 0.307223 -0.208637 0.0803015 0.267547 0.299314 0.0841531 -0.180914 0.193799 
29 -0.103328 -0.271147 0.200952 0.0441006 0.0383584 0.228257 0.0764953 -0.148163 -0.146194 0.0306497 0.307223 -0.208637 0.0803015 0.267547 0.299314 0.0841531 -0.180914 0.193799 
30 -0.103328 -0.271147 0.0441006 0.0383584 0.0764953 -0.148163 0.0306497 0.307223 0.0803015 0.267547 0.0841531 -0.180914 
31 -0.103328 0.0441006 0.0764953 0.0306497 0.0803015 0.0841531 
32 -0.0738887 0.200952 -0.150075 0.228257 -0.0364246 -0.146194 0.0903743 -0.208637 0.0405658 0.299314 0.185741 0.193799 
33 0.180139 -0.0738887 -0.271147 0.200952 -0.112363 -0.150075 0.0383584 0.228257 0.0146709 -0.0364246 -0.148163 -0.146194 -0.212792 0.0903743 0.307223 -0.208637 -0.245554 0.0405658 0.267547 0.299314 -0.19649 0.185741 -0.180914 0.193799 
34 -0.11666 0.180139 -0.0738887 -0.103328 -0.271147 0.200952 0.0171987 -0.112363 -0.150075 0.0441006 0.0383584 0.228257 -0.294217 0.0146709 -0.0364246 0.0764953 -0.148163 -0.146194 0.173837 -0.212792 0.0903743 0.0306497 0.307223 -0.208637 0.0668381 -0.245554 0.0405658 0.0803015 0.267547 0.299314 0.27533 -0.19649 0.185741 0.0841531 -0.180914 0.193799 
35 -0.11666 0.180139 -0.0738887 -0.103328 -0.271147 0.200952 0.0171987 -0.112363 -0.150075 0.0441006 0.0383584 0.228257 -0.294217 0.0146709 -0.0364246 0.0764953 -0.148163 -0.146194 0.173837 -0.212792 0.0903743 0.0306497 0.307223 -0.208637 0.0668381 -0.245554 0.0405658 0.0803015 0.267547 0.299314 0.27533 -0.19649 0.185741 0.0841531 -0.180914 0.193799 
36 -0.11666 0.180139 -0.0738887 -0.103328 -0.271147 0.200952 0.0171987 -0.112363 -0.150075 0.0441006 0.0383584 0.228257 -0.294217 0.0146709 -0.0364246 0.0764953 -0.148163 -0.146194 0.173837 -0.212792 0.0903743 0.0306497 0.307223 -0.208637 0.0668381 -0.245554 0.0405658 0.0803015 0.267547 0.299314 0.27533 -0.19649 0.185741 0.0841531 -0.180914 0.193799 
37 -0.11666 0.180139 -0.0738887 -0.103328 -0.271147 0.200952 0.0171987 -0.112363 -0.150075 0.0441006 0.0383584 0.228257 -0.294217 0.0146709 -0.0364246 0.0764953 -0.148163 -0.146194 0.173837 -0.212792 0.0903743 0.0306497 0.307223 -0.208637 0.0668381 -0.245554 0.0405658 0.0803015 0.267547 0.299314 0.27533 -0.19649 0.185741 0.0841531 -0.180914 0.193799 
38 -0.11666 0.180139 -0.0738887 -0.103328 -0.271147 0.200952 0.0171987 -0.112363 -0.150075 0.0441006 0.0383584 0.228257 -0.294217 0.0146709 -0.0364246 0.0764953 -0.148163 -0.146194 0.173837 -0.212792 0.0903743 0.0306497 0.307223 -0.208637 0.0668381 -0.245554 0.0405658 0.0803015 0.267547 0.299314 0.27533 -0.19649 0.185741 0.0841531 -0.180914 0.193799 
39 -0.11666 0.180139 -0.0738887 -0.103328 -0.271147 0.200952 0.0171987 -0.112363 -0.150075 0.0441006 0.0383584 0.228257 -0.294217 0.0146709 -0.0364246 0.0764953 -0.148163 -0.146194 0.173837 -0.212792 0.0903743 0.0306497 0.307223 -0.208637 0.0668381 -0.245554 0.0405658 0.0803015 0.267547 0.299314 0.27533 -0.19649 0.185741 0.0841531 -0.180914 0.193799 
40 -0.11666 0.180139 -0.0738887 -0.103328 -0.271147 0.200952 0.0171987 -0.112363 -0.150075 0.0441006 0.0383584 0.228257 -0.294217 0.0146709 -0.0364246 0.0764953 -0.148163 -0.146194 0.173837 -0.212792 0.0903743 0.0306497 0.307223 -0.208637 0.0668381 -0.245554 0.0405658 0.0803015 0.267547 0.299314 0.27533 -0.19649 0.185741 0.0841531 -0.180914 0.193799 
41 -0.11666 0.180139 -0.0738887 -0.103328 -0.271147 0.200952 0.0171987 -0.112363 -0.150075 0.0441006 0.0383584 0.228257 -0.294217 0.0146709 -0.0364246 0.0764953 -0.148163 -0.146194 0.173837 -0.212792 0.0903743 0.0306497 0.307223 -0.208637 0.0668381 -0.245554 0.0405658 0.0803015 0.267547 0.299314 0.27533 -0.19649 0.185741 0.0841531 -0.180914 0.193799 
42 -0.11666 0.180139 -0.0738887 -0.103328 -0.271147 0.200952 0.0171987 -0.112363 -0.150075 0.0441006 0.0383584 0.228257 -0.294217 0.0146709 -0.0364246 0.0764953 -0.148163 -0.146194 0.173837 -0.212792 0.0903743 0.0306497 0.307223 -0.208637 0.0668381 -0.245554 0.0405658 0.0803015 0.267547 0.299314 0.27533 -0.19649 0.185741 0.0841531 -0.180914 0.193799 
43 -0.11666 0.180139 -0.0738887 -0.103328 -0.271147 0.200952 0.0171987 -0.112363 -0.150075 0.0441006 0.0383584 0.228257 -0.294217 0.0146709 -0.0364246 0.0764953 -0.148163 -0.146194 0.173837 -0.212792 0.0903743 0.0306497 0.307223 -0.208637 0.0668381 -0.245554 0.0405658 0.0803015 0.267547 0.299314 0.27533 -0.19649 0.185741 0.0841531 -0.180914 0.193799 
44 -0.11666 0.180139 -0.0738887 -0.103328 -0.271147 0.200952 0.0171987 -0.112363 -0.150075 0.0441006 0.0383584 0.228257 -0.294217 0.0146709 -0.0364246 0.0764953 -0.148163 -0.146194 0.173837 -0.212792 0.0903743 0.0306497 0.307223 -0.208637 0.0668381 -0.245554 0.0405658 0.0803015 0.267547 0.299314 0.27533 -0.19649 0.185741 0.0841531 -0.180914 0.193799 
45 -0.11666 0.180139 -0.0738887 -0.103328 -0.271147 0.200952 0.0171987 -0.112363 -0.150075 0.0441006 0.0383584 0.228257 -0.294217 0.0146709 -0.0364246 0.0764953 -0.148163 -0.146194 0.173837 -0.212792 0.0903743 0.0306497 0.307223 -0.208637 0.0668381 -0.245554 0.0405658 0.0803015 0.267547 0.299314 0.27533 -0.19649 0.185741 0.0841531 -0.180914 0.193799 
46 -0.11666 0.180139 -0.0738887 -0.103328 -0.271147 0.200952 0.0171987 -0.112363 -0.150075 0.0441006 0.0383584 0.228257 -0.294217 0.0146709 -0.0364246 0.0764953 -0.148163 -0.146194 0.173837 -0.212792 0.0903743 0.0306497 0.307223 -0.208637 0.0668381 -0.245554 0.0405658 0.0803015 0.267547 0.299314 0.27533 -0.19649 0.185741 0.0841531 -0.180914 0.193799 
47 -0.11666 0.180139 -0.0738887 -0.103328 -0.271147 0.200952 0.0171987 -0.112363 -0.150075 0.0441006 0.0383584 0.228257 -0.294217 0.0146709 -0.0364246 0.0764953 -0.148163 -0.146194 0.173837 -0.212792 0.0903743 0.0306497 0.307223 -0.208637 0.0668381 -0.245554 0.0405658 0.0803015 0.267547 0.299314 0.27533 -0.19649 0.185741 0.0841531 -0.180914 0.193799 
48 -0.11666 0.180139 -0.0738887 -0.103328 -0.271147 0.200952 0.0171987 -0.112363 -0.150075 0.0441006 0.0383584 0.228257 -0.294217 0.0146709 -0.0364246 0.0764953 -0.148163 -0.146194 0.173837 -0.212792 0.0903743 0.0306497 0.307223 -0.208637 0.0668381 -0.245554 0.0405658 0.0803015 0.267547 0.299314 0.27533 -0.19649 0.185741 0.0841531 -0.180914 0.193799 
49 -0.11666 0.180139 -0.0738887 -0.103328 -0.271147 0.200952 0.0171987 -0.112363 -0.150075 0.0441006 0.0383584 0.228257 -0.294217 0.0146709 -0.0364246 0.0764953 -0.148163 -0.146194 0.173837 -0.212792 0.0903743 0.0306497 0.307223 -0.208637 0.0668381 -0.245554 0.0405658 0.0803015 0.267547 0.299314 0.27533 -0.19649 0.185741 0.0841531 -0.180914 0.193799 
50 -0.11666 0.180139 -0.0738887 -0.103328 -0.271147 0.200952 0.0171987 -0.112363 -0.150075 0.0441006 0.0383584 0.228257 -0.294217 0.0146709 -0.0364246 0.0764953 -0.148163 -0.146194 0.173837 -0.212792 0.0903743 0.0306497 0.307223 -0.208637 0.0668381 -0.245554 0.0405658 0.0803015 0.267547 0.299314 0.27533 -0.19649 0.185741 0.0841531 -0.180914 0.193799 
51 -0.11666 0.180139 -0.0738887 -0.103328 -0.271147 0.200952 0.0171987 -0.112363 -0.150075 0.0441006 0.0383584 0.228257 -0.294217 0.0146709 -0.0364246 0.0764953 -0.148163 -0.146194 0.173837 -0.212792 0.0903743 0.0306497 0.307223 -0.208637 0.0668381 -0.245554 0.0405658 0.0803015 0.267547 0.299314 0.27533 -0.19649 0.185741 0.0841531 -0.180914 0.193799 
52 -0.11666 0.180139 -0.0738887 -0.103328 -0.271147 0.200952 0.0171987 -0.112363 -0.150075 0.0441006 0.0383584 0.228257 -0.294217 0.0146709 -0.0364246 0.0764953 -0.148163 -0.146194 0.173837 -0.212792 0.0903743 0.0306497 0.307223 -0.208637 0.0668381 -0.245554 0.0405658 0.0803015 0.267547 0.299314 0.27533 -0.19649 0.185741 0.0841531 -0.180914 0.193799 
53 -0.11666 0.180139 -0.0738887 -0.103328 -0.271147 0.200952 0.0171987 -0.112363 -0.150075 0.0441006 0.0383584 0.228257 -0.294217 0.0146709 -0.0364246 0.0764953 -0.148163 -0.146194 0.173837 -0.212792 0.0903743 0.0306497 0.307223 -0.208637 0.0668381 -0.245554 0.0405658 0.0803015 0.267547 0.299314 0.27533 -0.19649 0.185741 0.0841531 -0.180914 0.193799 
54 -0.11666 0.180139 -0.0738887 -0.103328 -0.271147 0.200952 0.0171987 -0.112363 -0.150075 0.0441006 0.0383584 0.228257 -0.294217 0.0146709 -0.0364246 0.0764953 -0.148163 -0.146194 0.173837 -0.212792 0.0903743 0.0306497 0.307223 -0.208637 0.0668381 -0.245554 0.0405658 0.0803015 0.267547 0.299314 0.27533 -0.19649 0.185741 0.0841531 -0.180914 0.193799 
55 -0.11666 0.180139 -0.0738887 -0.103328 -0.271147 0.200952 0.0171987 -0.112363 -0.150075 0.0441006 0.0383584 0.228257 -0.294217 0.0146709 -0.0364246 0.0764953 -0.148163 -0.146194 0.173837 -0.212792 0.0903743 0.0306497 0.307223 -0.208637 0.0668381 -0.245554 0.0405658 0.0803015 0.267547 0.299314 0.27533 -0.19649 0.185741 0.0841531 -0.180914 0.193799 
56 -0.11666 0.180139 -0.0738887 -0.103328 -0.271147 0.200952 0.0171987 -0.112363 -0.150075 0.0441006 0.0383584 0.228257 -0.294217 0.0146709 -0.0364246 0.0764953 -0.148163 -0.146194 0.173837 -0.212792 0.0903743 0.0306497 0.307223 -0.208637 0.0668381 -0.245554 0.0405658 0.0803015 0.267547 0.299314 0.27533 -0.19649 0.185741 0.0841531 -0.180914 0.193799 
57 -0.11666 0.180139 -0.0738887 -0.103328 -0.271147 0.200952 0.0171987 -0.112363 -0.150075 0.0441006 0.0383584 0.228257 -0.294217 0.0146709 -0.0364246 0.0764953 -0.148163 -0.146194 0.173837 -0.212792 0.0903743 0.0306497 0.307223 -0.208637 0.0668381 -0.245554 0.0405658 0.0803015 0.267547 0.299314 0.27533 -0.19649 0.185741 0.0841531 -0.180914 0.193799 
58 -0.11666 0.180139 -0.0738887 -0.103328 -0.271147 0.200952 0.0171987 -0.112363 -0.150075 0.0441006 0.0383584 0.228257 -0.294217 0.0146709 -0.0364246 0.0764953 -0.148163 -0.146194 0.173837 -0.212792 0.0903743 0.0306497 0.307223 -0.208637 0.0668381 -0.245554 0.0405658 0.0803015 0.267547 0.299314 0.27533 -0.19649 0.185741 0.0841531 -0.180914 0.193799 
59 -0.11666 0.180139 -0.0738887 -0.103328 -0.271147 0.200952 0.0171987 -0.112363 -0.150075 0.0441006 0.0383584 0.228257 -0.294217 0.0146709 -0.0364246 0.0764953 -0.148163 -0.146194 0.173837 -0.212792 0.0903743 0.0306497 0.307223 -0.208637 0.0668381 -0.245554 0.0405658 0.0803015 0.267547 0.299314 0.27533 -0.19649 0.185741 0.0841531 -0.180914 0.193799 
60 -0.11666 0.180139 -0.0738887 -0.103328 -0.271147 0.200952 0.0171987 -0.112363 -0.150075 0.0441006 0.0383584 0.228257 -0.294217 0.0146709 -0.0364246 0.0764953 -0.148163 -0.146194 0.173837 -0.212792 0.0903743 0.0306497 0.307223 -0.208637 0.0668381 -0.245554 0.0405658 0.0803015 0.267547 0.299314 0.27533 -0.19649 0.185741 0.0841531 -0.180914 0.193799 
61 -0.11666 0.180139 -0.0738887 -0.103328 -0.271147 0.200952 0.0171987 -0.112363 -0.150075 0.0441006 0.0383584 0.228257 -0.294217 0.0146709 -0.0364246 0.0764953 -0.148163 -0.146194 0.173837 -0.212792 0.0903743 0.0306497 0.307223 -0.208637 0.0668381 -0.245554 0.0405658 0.0803015 0.267547 0.299314 0.27533 -0.19649 0.185741 0.0841531 -0.180914 0.193799 
62 -0.11666 0.180139 -0.103328 -0.271147 0.0171987 -0.112363 0.0441006 0.0383584 -0.294217 0.0146709 0.0764953 -0.148163 0.173837 -0.212792 0.0306497 0.307223 0.0668381 -0.245554 0.0803015 0.267547 0.27533 -0.19649 0.0841531 -0.180914 
63 -0.11666 -0.103328 0.0171987 0.0441006 -0.294217 0.0764953 0.173837 0.0306497 0.0668381 0.0803015 0.27533 0.0841531 
64 0.268722 -0.0738887 0.200952 0.0456373 -0.150075 0.228257 -0.252737 -0.0364246 -0.146194 -0.236846 0.0903743 -0.208637 -0.109152 0.0405658 0.299314 0.0656801 0.185741 0.193799 
65 0.265264 0.268722 0.180139 -0.0738887 -0.271147 0.200952 0.0210069 0.0456373 -0.112363 -0.150075 0.0383584 0.228257 -0.0918118 -0.252737 0.0146709 -0.0364246 -0.148163 -0.146194 -0.306288 -0.236846 -0.212792 0.0903743 0.307223 -0.208637 0.216018 -0.109152 -0.245554 0.0405658 0.267547 0.299314 -0.173725 0.0656801 -0.19649 0.185741 -0.180914 0.193799 
66 -0.247438 0.265264 0.268722 -0.11666 0.180139 -0.0738887 -0.103328 -0.271147 0.200952 0.111224 0.0210069 0.0456373 0.0171987 -0.112363 -0.150075 0.0441006 0.0383584 0.228257 0.0909136 -0.0918118 -0.252737 -0.294217 0.0146709 -0.0364246 0.0764953 -0.148163 -0.146194 -0.15509 -0.306288 -0.236846 0.173837 -0.212792 0.0903743 0.0306497 0.307223 -0.208637 0.0854203 0.216018 -0.109152 0.0668381 -0.245554 0.0405658 0.0803015 0.267547 0.299314 0.0895994 -0.173725 0.0656801 0.27533 -0.19649 0.185741 0.0841531 -0.180914 0.193799 
67 -0.247438 0.265264 0.268722 -0.11666 0.180139 -0.0738887 -0.103328 -0.271147 0.200952 0.111224 0.0210069 0.0456373 0.0171987 -0.112363 -0.150075 0.0441006 0.0383584 0.228257 0.0909136 -0.0918118 -0.252737 -0.294217 0.0146709 -0.0364246 0.0764953 -0.148163 -0.146194 -0.15509 -0.306288 -0.236846 0.173837 -0.212792 0.0903743 0.0306497 0.307223 -0.208637 0.0854203 0.216018 -0.109152 0.0668381 -0.245554 0.0405658 0.0803015 0.267547 0.299314 0.0895994 -0.173725 0.0656801 0.27533 -0.19649 0.185741 0.0841531 -0.180914 0.193799 
68 -0.247438 0.265264 0.268722 -0.11666 0.180139 -0.0738887 -0.103328 -0.271147 0.200952 0.111224 0.0210069 0.0456373 0.0171987 -0.112363 -0.150075 0.0441006 0.0383584 0.228257 0.0909136 -0.0918118 -0.252737 -0.294217 0.0146709 -0.0364246 0.0764953 -0.148163 -0.146194 -0.15509 -0.306288 -0.236846 0.173837 -0.212792 0.0903743 0.0306497 0.307223 -0.208637 0.0854203 0.216018 -0.109152 0.0668381 -0.245554 0.0405658 0.0803015 0.267547 0.299314 0.0895994 -0.173725 0.0656801 0.27533 -0.19649 0.185741 0.0841531 -0.180914 0.193799 
69 -0.247438 0.265264 0.268722 -0.11666 0.180139 -0.0738887 -0.103328 -0.271147 0.200952 0.111224 0.0210069 0.0456373 0.0171987 -0.112363 -0.150075 0.0441006 0.0383584 0.228257 0.0909136 -0.0918118 -0.252737 -0.294217 0.0146709 -0.0364246 0.0764953 -0.148163 -0.146194 -0.15509 -0.306288 -0.236846 0.173837 -0.212792 0.0903743 0.0306497 0.307223 -0.208637 0.0854203 0.216018 -0.109152 0.0668381 -0.245554 0.0405658 0.0803015 0.267547 0.299314 0.0895994 -0.173725 0.0656801 0.27533 -0.19649 0.185741 0.0841531 -0.180914 0.193799 
70 -0.247438 0.265264 0.268722 -0.11666 0.180139 -0.0738887 -0.103328 -0.271147 0.200952 0.111224 0.0210069 0.0456373 0.0171987 -0.112363 -0.150075 0.0441006 0.0383584 0.228257 0.0909136 -0.0918118 -0.252737 -0.294217 0.0146709 -0.0364246 0.0764953 -0.148163 -0.146194 -0.15509 -0.306288 -0.236846 0.173837 -0.212792 0.0903743 0.0306497 0.307223 -0.208637 0.0854203 0.216018 -0.109152 0.0668381 -0.245554 0.0405658 0.0803015 0.267547 0.299314 0.0895994 -0.173725 0.0656801 0.27533 -0.19649 0.185741 0.0841531 -0.180914 0.193799 
71 -0.247438 0.265264 0.268722 -0.11666 0.180139 -0.0738887 -0.103328 -0.271147 0.200952 0.111224 0.0210069 0.0456373 0.0171987 -0.112363 -0.150075 0.0441006 0.0383584 0.228257 0.0909136 -0.0918118 -0.252737 -0.294217 0.0146709 -0.0364246 0.0764953 -0.148163 -0.146194 -0.15509 -0.306288 -0.236846 0.173837 -0.212792 0.0903743 0.0306497 0.307223 -0.208637 0.0854203 0.216018 -0.109152 0.0668381 -0.245554 0.0405658 0.0803015 0.267547 0.299314 0.0895994 -0.173725 0.0656801 0.27533 -0.19649 0.185741 0.0841531 -0.180914 0.193799 
72 -0.247438 0.265264 0.268722 -0.11666 0.180139 -0.0738887 -0.103328 -0.271147 0.200952 0.111224 0.0210069 0.0456373 0.0171987 -0.112363 -0.150075 0.0441006 0.0383584 0.228257 0.0909136 -0.0918118 -0.252737 -0.294217 0.0146709 -0.0364246 0.0764953 -0.148163 -0.146194 -0.15509 -0.306288 -0.236846 0.173837 -0.212792 0.0903743 0.0306497 0.307223 -0.208637 0.0854203 0.216018 -0.109152 0.0668381 -0.245554 0.0405658 0.0803015 0.267547 0.299314 0.0895994 -0.173725 0.0656801 0.27533 -0.19649 0.185741 0.0841531 -0.180914 0.193799 
73 -0.247438 0.265264 0.268722 -0.11666 0.180139 -0.0738887 -0.103328 -0.271147 0.200952 0.111224 0.0210069 0.0456373 0.0171987 -0.112363 -0.150075 0.0441006 0.0383584 0.228257 0.0909136 -0.0918118 -0.252737 -0.294217 0.0146709 -0.0364246 0.0764953 -0.148163 -0.146194 -0.15509 -0.306288 -0.236846 0.173837 -0.212792 0.0903743 0.0306497 0.307223 -0.208637 0.0854203 0.216018 -0.109152 0.0668381 -0.245554 0.0405658 0.0803015 0.267547 0.299314 0.0895994 -0.173725 0.0656801 0.27533 -0.19649 0.185741 0.0841531 -0.180914 0.193799 
74 -0.247438 0.265264 0.268722 -0.11666 0.180139 -0.0738887 -0.103328 -0.271147 0.200952 0.111224 0.0210069 0.0456373 0.0171987 -0.112363 -0.150075 0.0441006 0.0383584 0.228257 0.0909136 -0.0918118 -0.252737 -0.294217 0.0146709 -0.0364246 0.0764953 -0.148163 -0.146194 -0.15509 -0.306288 -0.236846 0.173837 -0.212792 0.0903743 0.0306497 0.307223 -0.208637 0.0854203 0.216018 -0.109152 0.0668381 -0.245554 0.0405658 0.0803015 0.267547 0.299314 0.0895994 -0.173725 0.0656801 0.27533 -0.19649 0.185741 0.0841531 -0.180914 0.193799 
75 -0.247438 0.265264 0.268722 -0.11666 0.180139 -0.0738887 -0.103328 -0.271147 0.200952 0.111224 0.0210069 0.0456373 0.0171987 -0.112363 -0.150075 0.0441006 0.0383584 0.228257 0.0909136 -0.0918118 -0.252737 -0.294217 0.0146709 -0.0364246 0.0764953 -0.148163 -0.146194 -0.15509 -0.306288 -0.236846 0.173837 -0.212792 0.0903743 0.0306497 0.307223 -0.208637 0.0854203 0.216018 -0.109152 0.0668381 -0.245554 0.0405658 0.0803015 0.267547 0.299314 0.0895994 -0.173725 0.0656801 0.27533 -0.19649 0.185741 0.0841531 -0.180914 0.193799 
76 -0.247438 0.265264 0.268722 -0.11666 0.180139 -0.0738887 -0.103328 -0.271147 0.200952 0.111224 0.0210069 0.0456373 0.0171987 -0.112363 -0.150075 0.0441006 0.0383584 0.228257 0.0909136 -0.0918118 -0.252737 -0.294217 0.0146709 -0.0364246 0.0764953 -0.148163 -0.146194 -0.15509 -0.306288 -0.236846 0.173837 -0.212792 0.0903743 0.0306497 0.307223 -0.208637 0.0854203 0.216018 -0.109152 0.0668381 -0.245554 0.0405658 0.0803015 0.267547 0.299314 0.0895994 -0.173725 0.0656801 0.27533 -0.19649 0.185741 0.0841531 -0.180914 0.193799 
77 -0.247438 0.265264 0.268722 -0.11666 0.180139 -0.0738887 -0.103328 -0.271147 0.200952 0.111224 0.0210069 0.0456373 0.0171987 -0.112363 -0.150075 0.0441006 0.0383584 0.228257 0.0909136 -0.0918118 -0.252737 -0.294217 0.0146709 -0.0364246 0.0764953 -0.148163 -0.146194 -0.15509 -0.306288 -0.236846 0.173837 -0.212792 0.0903743 0.0306497 0.307223 -0.208637 0.0854203 0.216018 -0.109152 0.0668381 -0.245554 0.0405658 0.0803015 0.267547 0.299314 0.0895994 -0.173725 0.0656801 0.27533 -0.19649 0.185741 0.0841531 -0.180914 0.193799 
78 -0.247438 0.265264 0.268722 -0.11666 0.180139 -0.0738887 -0.103328 -0.271147 0.200952 0.111224 0.0210069 0.0456373 0.0171987 -0.112363 -0.150075 0.0441006 0.0383584 0.228257 0.0909136 -0.0918118 -0.252737 -0.294217 0.0146709 -0.0364246 0.0764953 -0.148163 -0.146194 -0.15509 -0.306288 -0.236846 0.173837 -0.212792 0.0903743 0.0306497 0.307223 -0.208637 0.0854203 0.216018 -0.109152 0.0668381 -0.245554 0.0405658 0.0803015 0.267547 0.299314 0.0895994 -0.173725 0.0656801 0.27533 -0.19649 0.185741 0.0841531 -0.180914 0.193799 
79 -0.247438 0.265264 0.268722 -0.11666 0.180139 -0.0738887 -0.103328 -0.271147 0.200952 0.111224 0.0210069 0.0456373 0.0171987 -0.112363 -0.150075 0.0441006 0.0383584 0.228257 0.0909136 -0.0918118 -0.252737 -0.294217 0.0146709 -0.0364246 0.0764953 -0.148163 -0.146194 -0.15509 -0.306288 -0.236846 0.173837 -0.212792 0.0903743 0.0306497 0.307223 -0.208637 0.0854203 0.216018 -0.109152 0.0668381 -0.245554 0.0405658 0.0803015 0.267547 0.299314 0.0895994 -0.173725 0.0656801 0.27533 -0.19649 0.185741 0.0841531 -0.180914 0.193799 
80 -0.247438 0.265264 0.268722 -0.11666 0.180139 -0.0738887 -0.103328 -0.271147 0.200952 0.111224 0.0210069 0.0456373 0.0171987 -0.112363 -0.150075 0.0441006 0.0383584 0.228257 0.0909136 -0.0918118 -0.252737 -0.294217 0.0146709 -0.0364246 0.0764953 -0.148163 -0.146194 -0.15509 -0.306288 -0.236846 0.173837 -0.212792 0.0903743 0.0306497 0.307223 -0.208637 0.0854203 0.216018 -0.109152 0.0668381 -0.245554 0.0405658 0.0803015 0.267547 0.299314 0.0895994 -0.173725 0.0656801 0.27533 -0.19649 0.185741 0.0841531 -0.180914 0.193799 
81 -0.247438 0.265264 0.268722 -0.11666 0.180139 -0.0738887 -0.103328 -0.271147 0.200952 0.111224 0.0210069 0.0456373 0.0171987 -0.112363 -0.150075 0.0441006 0.0383584 0.228257 0.0909136 -0.0918118 -0.252737 -0.294217 0.0146709 -0.0364246 0.0764953 -0.148163 -0.146194 -0.15509 -0.306288 -0.236846 0.173837 -0.212792 0.0903743 0.0306497 0.307223 -0.208637 0.0854203 0.216018 -0.109152 0.0668381 -0.245554 0.0405658 0.0803015 0.267547 0.299314 0.0895994 -0.173725 0.0656801 0.27533 -0.19649 0.185741 0.0841531 -0.180914 0.193799 
82 -0.247438 0.265264 0.268722 -0.11666 0.180139 -0.0738887 -0.103328 -0.271147 0.200952 0.111224 0.0210069 0.0456373 0.0171987 -0.112363 -0.150075 0.0441006 0.0383584 0.228257 0.0909136 -0.0918118 -0.252737 -0.294217 0.0146709 -0.0364246 0.0764953 -0.148163 -0.146194 -0.15509 -0.306288 -0.236846 0.173837 -0.212792 0.0903743 0.0306497 0.307223 -0.208637 0.0854203 0.216018 -0.109152 0.0668381 -0.245554 0.0405658 0.0803015 0.267547 0.299314 0.0895994 -0.173725 0.0656801 0.27533 -0.19649 0.185741 0.0841531 -0.180914 0.193799 
83 -0.247438 0.265264 0.268722 -0.11666 0.180139 -0.0738887 -0.103328 -0.271147 0.200952 0.111224 0.0210069 0.0456373 0.0171987 -0.112363 -0.150075 0.0441006 0.0383584 0.228257 0.0909136 -0.0918118 -0.252737 -0.294217 0.0146709 -0.0364246 0.0764953 -0.148163 -0.146194 -0.15509 -0.306288 -0.236846 0.173837 -0.212792 0.0903743 0.0306497 0.307223 -0.208637 0.0854203 0.216018 -0.109152 0.0668381 -0.245554 0.0405658 0.0803015 0.267547 0.299314 0.0895994 -0.173725 0.0656801 0.27533 -0.19649 0.185741 0.0841531 -0.180914 0.193799 
84 -0.247438 0.265264 0.268722 -0.11666 0.180139 -0.0738887 -0.103328 -0.271147 0.200952 0.111224 0.0210069 0.0456373 0.0171987 -0.112363 -0.150075 0.0441006 0.0383584 0.228257 0.0909136 -0.0918118 -0.252737 -0.294217 0.0146709 -0.0364246 0.0764953 -0.148163 -0.146194 -0.15509 -0.306288 -0.236846 0.173837 -0.212792 0.0903743 0.0306497 0.307223 -0.208637 0.0854203 0.216018 -0.109152 0.0668381 -0.245554 0.0405658 0.0803015 0.267547 0.299314 0.0895994 -0.173725 0.0656801 0.27533 -0.19649 0.185741 0.0841531 -0.180914 0.193799 
85 -0.247438 0.265264 0.268722 -0.11666 0.180139 -0.0738887 -0.103328 -0.271147 0.200952 0.111224 0.0210069 0.0456373 0.0171987 -0.112363 -0.150075 0.0441006 0.0383584 0.228257 0.0909136 -0.0918118 -0.252737 -0.294217 0.0146709 -0.0364246 0.0764953 -0.148163 -0.146194 -0.15509 -0.306288 -0.236846 0.173837 -0.212792 0.0903743 0.0306497 0.307223 -0.208637 0.0854203 0.216018 -0.109152 0.0668381 -0.245554 0.0405658 0.0803015 0.267547 0.299314 0.0895994 -0.173725 0.0656801 0.27533 -0.19649 0.185741 0.0841531 -0.180914 0.193799 
86 -0.247438 0.265264 0.268722 -0.11666 0.180139 -0.0738887 -0.103328 -0.271147 0.200952 0.111224 0.0210069 0.0456373 0.0171987 -0.112363 -0.150075 0.0441006 0.0383584 0.228257 0.0909136 -0.0918118 -0.252737 -0.294217 0.0146709 -0.0364246 0.0764953 -0.148163 -0.146194 -0.15509 -0.306288 -0.236846 0.173837 -0.212792 0.0903743 0.0306497 0.307223 -0.208637 0.0854203 0.216018 -0.109152 0.0668381 -0.245554 0.0405658 0.0803015 0.267547 0.299314 0.0895994 -0.173725 0.0656801 0.27533 -0.19649 0.185741 0.0841531 -0.180914 0.193799 
87 -0.247438 0.265264 0.268722 -0.11666 0.180139 -0.0738887 -0.103328 -0.271147 0.200952 0.111224 0.0210069 0.0456373 0.0171987 -0.112363 -0.150075 0.0441006 0.0383584 0.228257 0.0909136 -0.0918118 -0.252737 -0.294217 0.0146709 -0.0364246 0.0764953 -0.148163 -0.146194 -0.15509 -0.306288 -0.236846 0.173837 -0.212792 0.0903743 0.0306497 0.307223 -0.208637 0.0854203 0.216018 -0.109152 0.0668381 -0.245554 0.0405658 0.0803015 0.267547 0.299314 0.0895994 -0.173725 0.0656801 0.27533 -0.19649 0.185741 0.0841531 -0.180914 0.193799 
88 -0.247438 0.265264 0.268722 -0.11666 0.180139 -0.0738887 -0.103328 -0.271147 0.200952 0.111224 0.0210069 0.0456373 0.0171987 -0.112363 -0.150075 0.0441006 0.0383584 0.228257 0.0909136 -0.0918118 -0.252737 -0.294217 0.0146709 -0.0364246 0.0764953 -0.148163 -0.146194 -0.15509 -0.306288 -0.236846 0.173837 -0.212792 0.0903743 0.0306497 0.307223 -0.208637 0.0854203 0.216018 -0.109152 0.0668381 -0.245554 0.0405658 0.0803015 0.267547 0.299314 0.0895994 -0.173725 0.0656801 0.27533 -0.19649 0.185741 0.0841531 -0.180914 0.193799 
89 -0.247438 0.265264 0.268722 -0.11666 0.180139 -0.0738887 -0.103328 -0.271147 0.200952 0.111224 0.0210069 0.0456373 0.0171987 -0.112363 -0.150075 0.0441006 0.0383584 0.228257 0.0909136 -0.0918118 -0.252737 -0.294217 0.0146709 -0.0364246 0.0764953 -0.148163 -0.146194 -0.15509 -0.306288 -0.236846 0.173837 -0.212792 0.0903743 0.0306497 0.307223 -0.208637 0.0854203 0.216018 -0.109152 0.0668381 -0.245554 0.0405658 0.0803015 0.267547 0.299314 0.0895994 -0.173725 0.0656801 0.27533 -0.19649 0.185741 0.0841531 -0.180914 0.193799 
90 -0.247438 0.265264 0.268722 -0.11666 0.180139 -0.0738887 -0.103328 -0.271147 0.200952 0.111224 0.0210069 0.0456373 0.0171987 -0.112363 -0.150075 0.0441006 0.0383584 0.228257 0.0909136 -0.0918118 -0.252737 -0.294217 0.0146709 -0.0364246 0.0764953 -0.148163 -0.146194 -0.15509 -0.306288 -0.236846 0.173837 -0.212792 0.0903743 0.0306497 0.307223 -0.208637 0.0854203 0.216018 -0.109152 0.0668381 -0.245554 0.0405658 0.0803015 0.267547 0.299314 0.0895994 -0.173725 0.0656801 0.27533 -0.19649 0.185741 0.0841531 -0.180914 0.193799 
91 -0.247438 0.265264 0.268722 -0.11666 0.180139 -0.0738887 -0.103328 -0.271147 0.200952 0.111224 0.0210069 0.0456373 0.0171987 -0.112363 -0.150075 0.0441006 0.0383584 0.228257 0.0909136 -0.0918118 -0.252737 -0.294217 0.0146709 -0.0364246 0.0764953 -0.148163 -0.146194 -0.15509 -0.306288 -0.236846 0.173837 -0.212792 0.0903743 0.0306497 0.307223 -0.208637 0.0854203 0.216018 -0.109152 0.0668381 -0.245554 0.0405658 0.0803015 0.267547 0.299314 0.0895994 -0.173725 0.0656801 0.27533 -0.19649 0.185741 0.0841531 -0.180914 0.193799 
92 -0.247438 0.265264 0.268722 -0.11666 0.180139 -0.0738887 -0.103328 -0.271147 0.200952 0.111224 0.0210069 0.0456373 0.0171987 -0.112363 -0.150075 0.0441006 0.0383584 0.228257 0.0909136 -0.0918118 -0.252737 -0.294217 0.0146709 -0.0364246 0.0764953 -0.148163 -0.146194 -0.15509 -0.306288 -0.236846 0.173837 -0.212792 0.0903743 0.0306497 0.307223 -0.208637 0.0854203 0.216018 -0.109152 0.0668381 -0.245554 0.0405658 0.0803015 0.267547 0.299314 0.0895994 -0.173725 0.0656801 0.27533 -0.19649 0.185741 0.0841531 -0.180914 0.193799 
93 -0.247438 0.265264 0.268722 -0.11666 0.180139 -0.0738887 -0.103328 -0.271147 0.200952 0.111224 0.0210069 0.0456373 0.0171987 -0.112363 -0.150075 0.0441006 0.0383584 0.228257 0.0909136 -0.0918118 -0.252737 -0.294217 0.0146709 -0.0364246 0.0764953 -0.148163 -0.146194 -0.15509 -0.306288 -0.236846 0.173837 -0.212792 0.0903743 0.0306497 0.307223 -0.208637 0.0854203 0.216018 -0.109152 0.0668381 -0.245554 0.0405658 0.0803015 0.267547 0.299314 0.0895994 -0.173725 0.0656801 0.27533 -0.19649 0.185741 0.0841531 -0.180914 0.193799 
94 -0.247438 0.265264 -0.11666 0.180139 -0.103328 -0.271147 0.111224 0.0210069 0.0171987 -0.112363 0.0441006 0.0383584 0.0909136 -0.0918118 -0.294217 0.0146709 0.0764953 -0.148163 -0.15509 -0.306288 0.173837 -0.212792 0.0306497 0.307223 0.0854203 0.216018 0.0668381 -0.245554 0.0803015 0.267547 0.0895994 -0.173725 0.27533 -0.19649 0.0841531 -0.180914 
95 -0.247438 -0.11666 -0.103328 0.111224 0.0171987 0.0441006 0.0909136 -0.294217 0.0764953 -0.15509 0.173837 0.0306497 0.0854203 0.0668381 0.0803015 0.0895994 0.27533 0.0841531 
96 0.268722 -0.0738887 0.200952 0.0456373 -0.150075 0.228257 -0.252737 -0.0364246 -0.146194 -0.236846 0.0903743 -0.208637 -0.109152 0.0405658 0.299314 0.0656801 0.185741 0.193799 
97 0.265264 0.268722 0.180139 -0.0738887 -0.271147 0.200952 0.0210069 0.0456373 -0.112363 -0.150075 0.0383584 0.228257 -0.0918118 -0.252737 0.0146709 -0.0364246 -0.148163 -0.146194 -0.306288 -0.236846 -0.212792 0.0903743 0.307223 -0.208637 0.216018 -0.109152 -0.245554 0.0405658 0.267547 0.299314 -0.173725 0.0656801 -0.19649 0.185741 -0.180914 0.193799 
98 -0.247438 0.265264 0.268722 -0.11666 0.180139 -0.0738887 -0.103328 -0.271147 0.200952 0.111224 0.0210069 0.0456373 0.0171987 -0.112363 -0.150075 0.0441006 0.0383584 0.228257 0.0909136 -0.0918118 -0.252737 -0.294217 0.0146709 -0.0364246 0.0764953 -0.148163 -0.146194 -0.15509 -0.306288 -0.236846 0.173837 -0.212792 0.0903743 0.0306497 0.307223 -0.208637 0.0854203 0.216018 -0.109152 0.0668381 -0.245554 0.0405658 0.0803015 0.267547 0.299314 0.0895994 -0.173725 0.0656801 0.27533 -0.19649 0.185741 0.0841531 -0.180914 0.193799 
99 -0.247438 0.265264 0.268722 -0.11666 0.180139 -0.0738887 -0.103328 -0.271147 0.200952 0.111224 0.0210069 0.0456373 0.0171987 -0.112363 -0.150075 0.0441006 0.0383584 0.228257 0.0909136 -0.0918118 -0.252737 -0.294217 0.0146709 -0.0364246 0.0764953 -0.148163 -0.146194 -0.15509 -0.306288 -0.236846 0.173837 -0.212792 0.0903743 0.0306497 0.307223 -0.208637 0.0854203 0.216018 -0.109152 0.0668381 -0.245554 0.0405658 0.0803015 0.267547 0.299314 0.0895994 -0.173725 0.0656801 0.27533 -0.19649 0.185741 0.0841531 -0.180914 0.193799 
100 -0.247438 0.265264 0.268722 -0.11666 0.180139 -0.0738887 -0.103328 -0.271147 0.200952 0.111224 0.0210069 0.0456373 0.0171987 -0.112363 -0.150075 0.0441006 0.0383584 0.228257 0.0909136 -0.0918118 -0.252737 -0.294217 0.0146709 -0.0364246 0.0764953 -0.148163 -0.146194 -0.15509 -0.306288 -0.236846 0.173837 -0.212792 0.0903743 0.0306497 0.307223 -0.208637 0.0854203 0.216018 -0.109152 0.0668381 -0.245554 0.0405658 0.0803015 0.267547 0.299314 0.0895994 -0.173725 0.0656801 0.27533 -0.19649 0.185741 0.0841531 -0.180914 0.193799 
101 -0.247438 0.265264 0.268722 -0.11666 0.180139 -0.0738887 -0.103328 -0.271147 0.200952 0.111224 0.0210069 0.0456373 0.0171987 -0.112363 -0.150075 0.0441006 0.0383584 0.228257 0.0909136 -0.0918118 -0.252737 -0.294217 0.0146709 -0.0364246 0.0764953 -0.148163 -0.146194 -0.15509 -0.306288 -0.236846 0.173837 -0.212792 0.0903743 0.0306497 0.307223 -0.208637 0.0854203 0.216018 -0.109152 0.0668381 -0.245554 0.0405658 0.0803015 0.267547 0.299314 0.0895994 -0.173725 0.0656801 0.27533 -0.19649 0.185741 0.0841531 -0.180914 0.193799 
102 -0.247438 0.265264 0.268722 -0.11666 0.180139 -0.0738887 -0.103328 -0.271147 0.200952 0.111224 0.0210069 0.0456373 0.0171987 -0.112363 -0.150075 0.0441006 0.0383584 0.228257 0.0909136 -0.0918118 -0.252737 -0.294217 0.0146709 -0.0364246 0.0764953 -0.148163 -0.146194 -0.15509 -0.306288 -0.236846 0.173837 -0.212792 0.0903743 0.0306497 0.307223 -0.208637 0.0854203 0.216018 -0.109152 0.0668381 -0.245554 0.0405658 0.0803015 0.267547 0.299314 0.0895994 -0.173725 0.0656801 0.27533 -0.19649 0.185741 0.0841531 -0.180914 0.193799 
103 -0.247438 0.265264 0.268722 -0.11666 0.180139 -0.0738887 -0.103328 -0.271147 0.200952 0.111224 0.0210069 0.0456373 0.0171987 -0.112363 -0.150075 0.0441006 0.0383584 0.228257 0.0909136 -0.0918118 -0.252737 -0.294217 0.0146709 -0.0364246 0.0764953 -0.148163 -0.146194 -0.15509 -0.306288 -0.236846 0.173837 -0.212792 0.0903743 0.0306497 0.307223 -0.208637 0.0854203 0.216018 -0.109152 0.0668381 -0.245554 0.0405658 0.0803015 0.267547 0.299314 0.0895994 -0.173725 0.0656801 0.27533 -0.19649 0.185741 0.0841531 -0.180914 0.193799 
104 -0.247438 0.265264 0.268722 -0.11666 0.180139 -0.0738887 -0.103328 -0.271147 0.200952 0.111224 0.0210069 0.0456373 0.0171987 -0.112363 -0.150075 0.0441006 0.0383584 0.228257 0.0909136 -0.0918118 -0.252737 -0.294217 0.0146709 -0.0364246 0.0764953 -0.148163 -0.146194 -0.15509 -0.306288 -0.236846 0.173837 -0.212792 0.0903743 0.0306497 0.307223 -0.208637 0.0854203 0.216018 -0.109152 0.0668381 -0.245554 0.0405658 0.0803015 0.267547 0.299314 0.0895994 -0.173725 0.0656801 0.27533 -0.19649 0.185741 0.0841531 -0.180914 0.193799 
105 -0.247438 0.265264 0.268722 -0.11666 0.180139 -0.0738887 -0.103328 -0.271147 0.200952 0.111224 0.0210069 0.0456373 0.0171987 -0.112363 -0.150075 0.0441006 0.0383584 0.228257 0.0909136 -0.0918118 -0.252737 -0.294217 0.0146709 -0.0364246 0.0764953 -0.148163 -0.146194 -0.15509 -0.306288 -0.236846 0.173837 -0.212792 0.0903743 0.0306497 0.307223 -0.208637 0.0854203 0.216018 -0.109152 0.0668381 -0.245554 0.0405658 0.0803015 0.267547 0.299314 0.0895994 -0.173725 0.0656801 0.27533 -0.19649 0.185741 0.0841531 -0.180914 0.193799 
106 -0.247438 0.265264 0.268722 -0.11666 0.180139 -0.0738887 -0.103328 -0.271147 0.200952 0.111224 0.0210069 0.0456373 0.0171987 -0.112363 -0.150075 0.0441006 0.0383584 0.228257 0.0909136 -0.0918118 -0.252737 -0.294217 0.0146709 -0.0364246 0.0764953 -0.148163 -0.146194 -0.15509 -0.306288 -0.236846 0.173837 -0.212792 0.0903743 0.0306497 0.307223 -0.208637 0.0854203 0.216018 -0.109152 0.0668381 -0.245554 0.0405658 0.0803015 0.267547 0.299314 0.0895994 -0.173725 0.0656801 0.27533 -0.19649 0.185741 0.0841531 -0.180914 0.193799 
107 -0.247438 0.265264 0.268722 -0.11666 0.180139 -0.0738887 -0.103328 -0.271147 0.200952 0.111224 0.0210069 0.0456373 0.0171987 -0.112363 -0.150075 0.0441006 0.0383584 0.228257 0.0909136 -0.0918118 -0.252737 -0.294217 0.0146709 -0.0364246 0.0764953 -0.148163 -0.146194 -0.15509 -0.306288 -0.236846 0.173837 -0.212792 0.0903743 0.0306497 0.307223 -0.208637 0.0854203 0.216018 -0.109152 0.0668381 -0.245554 0.0405658 0.0803015 0.267547 0.299314 0.0895994 -0.173725 0.0656801 0.27533 -0.19649 0.185741 0.0841531 -0.180914 0.193799 
108 -0.247438 0.265264 0.268722 -0.11666 0.180139 -0.0738887 -0.103328 -0.271147 0.200952 0.111224 0.0210069 0.0456373 0.0171987 -0.112363 -0.150075 0.0441006 0.0383584 0.228257 0.0909136 -0.0918118 -0.252737 -0.294217 0.0146709 -0.0364246 0.0764953 -0.148163 -0.146194 -0.15509 -0.306288 -0.236846 0.173837 -0.212792 0.0903743 0.0306497 0.307223 -0.208637 0.0854203 0.216018 -0.109152 0.0668381 -0.245554 0.0405658 0.0803015 0.267547 0.299314 0.0895994 -0.173725 0.0656801 0.27533 -0.19649 0.185741 0.0841531 -0.180914 0.193799 
109 -0.247438 0.265264 0.268722 -0.11666 0.180139 -0.0738887 -0.103328 -0.271147 0.200952 0.111224 0.0210069 0.0456373 0.0171987 -0.112363 -0.150075 0.0441006 0.0383584 0.228257 0.0909136 -0.0918118 -0.252737 -0.294217 0.0146709 -0.0364246 0.0764953 -0.148163 -0.146194 -0.15509 -0.306288 -0.236846 0.173837 -0.212792 0.0903743 0.0306497 0.307223 -0.208637 0.0854203 0.216018 -0.109152 0.0668381 -0.245554 0.0405658 0.0803015 0.267547 0.299314 0.0895994 -0.173725 0.0656801 0.27533 -0.19649 0.185741 0.0841531 -0.180914 0.193799 
110 -0.247438 0.265264 0.268722 -0.11666 0.180139 -0.0738887 -0.103328 -0.271147 0.200952 0.111224 0.0210069 0.0456373 0.0171987 -0.112363 -0.150075 0.0441006 0.0383584 0.228257 0.0909136 -0.0918118 -0.252737 -0.294217 0.0146709 -0.0364246 0.0764953 -0.148163 -0.146194 -0.15509 -0.306288 -0.236846 0.173837 -0.212792 0.0903743 0.0306497 0.307223 -0.208637 0.0854203 0.216018 -0.109152 0.0668381 -0.245554 0.0405658 0.0803015 0.267547 0.299314 0.0895994 -0.173725 0.0656801 0.27533 -0.19649 0.185741 0.0841531 -0.180914 0.193799 
111 -0.247438 0.265264 0.268722 -0.11666 0.180139 -0.0738887 -0.103328 -0.271147 0.200952 0.111224 0.0210069 0.0456373 0.0171987 -0.112363 -0.150075 0.0441006 0.0383584 0.228257 0.0909136 -0.0918118 -0.252737 -0.294217 0.0146709 -0.0364246 0.0764953 -0.148163 -0.146194 -0.15509 -0.306288 -0.236846 0.173837 -0.212792 0.0903743 0.0306497 0.307223 -0.208637 0.0854203 0.216018 -0.109152 0.0668381 -0.245554 0.0405658 0.0803015 0.267547 0.299314 0.0895994 -0.173725 0.0656801 0.27533 -0.19649 0.185741 0.0841531 -0.180914 0.193799 
112 -0.247438 0.265264 0.268722 -0.11666 0.180139 -0.0738887 -0.103328 -0.271147 0.200952 0.111224 0.0210069 0.0456373 0.0171987 -0.112363 -0.150075 0.0441006 0.0383584 0.228257 0.0909136 -0.0918118 -0.252737 -0.294217 0.0146709 -0.0364246 0.0764953 -0.148163 -0.146194 -0.15509 -0.306288 -0.236846 0.173837 -0.212792 0.0903743 0.0306497 0.307223 -0.208637 0.0854203 0.216018 -0.109152 0.0668381 -0.245554 0.0405658 0.0803015 0.267547 0.299314 0.0895994 -0.173725 0.0656801 0.27533 -0.19649 0.185741 0.0841531 -0.180914 0.193799 
113 -0.247438 0.265264 0.268722 -0.11666 0.180139 -0.0738887 -0.103328 -0.271147 0.200952 0.111224 0.0210069 0.0456373 0.0171987 -0.112363 -0.150075 0.0441006 0.0383584 0.228257 0.0909136 -0.0918118 -0.252737 -0.294217 0.0146709 -0.0364246 0.0764953 -0.148163 -0.146194 -0.15509 -0.306288 -0.236846 0.173837 -0.212792 0.0903743 0.0306497 0.307223 -0.208637 0.0854203 0.216018 -0.109152 0.0668381 -0.245554 0.0405658 0.0803015 0.267547 0.299314 0.0895994 -0.173725 0.0656801 0.27533 -0.19649 0.185741 0.0841531 -0.180914 0.193799 
114 -0.247438 0.265264 0.268722 -0.11666 0.180139 -0.0738887 -0.103328 -0.271147 0.200952 0.111224 0.0210069 0.0456373 0.0171987 -0.112363 -0.150075 0.0441006 0.0383584 0.228257 0.0909136 -0.0918118 -0.252737 -0.294217 0.0146709 -0.0364246 0.0764953 -0.148163 -0.146194 -0.15509 -0.306288 -0.236846 0.173837 -0.212792 0.0903743 0.0306497 0.307223 -0.208637 0.0854203 0.216018 -0.109152 0.0668381 -0.245554 0.0405658 0.0803015 0.267547 0.299314 0.0895994 -0.173725 0.0656801 0.27533 -0.19649 0.185741 0.0841531 -0.180914 0.193799 
115 -0.247438 0.265264 0.268722 -0.11666 0.180139 -0.0738887 -0.103328 -0.271147 0.200952 0.111224 0.0210069 0.0456373 0.0171987 -0.112363 -0.150075 0.0441006 0.0383584 0.228257 0.0909136 -0.0918118 -0.252737 -0.294217 0.0146709 -0.0364246 0.0764953 -0.148163 -0.146194 -0.15509 -0.306288 -0.236846 0.173837 -0.212792 0.0903743 0.0306497 0.307223 -0.208637 0.0854203 0.216018 -0.109152 0.0668381 -0.245554 0.0405658 0.0803015 0.267547 0.299314 0.0895994 -0.173725 0.0656801 0.27533 -0.19649 0.185741 0.0841531 -0.180914 0.193799 
116 -0.247438 0.265264 0.268722 -0.11666 0.180139 -0.0738887 -0.103328 -0.271147 0.200952 0.111224 0.0210069 0.0456373 0.0171987 -0.112363 -0.150075 0.0441006 0.0383584 0.228257 0.0909136 -0.0918118 -0.252737 -0.294217 0.0146709 -0.0364246 0.0764953 -0.148163 -0.146194 -0.15509 -0.306288 -0.236846 0.173837 -0.212792 0.0903743 0.0306497 0.307223 -0.208637 0.0854203 0.216018 -0.109152 0.0668381 -0.245554 0.0405658 0.0803015 0.267547 0.299314 0.0895994 -0.173725 0.0656801 0.27533 -0.19649 0.185741 0.0841531 -0.180914 0.193799 
117 -0.247438 0.265264 0.268722 -0.11666 0.180139 -0.0738887 -0.103328 -0.271147 0.200952 0.111224 0.0210069 0.0456373 0.0171987 -0.112363 -0.150075 0.0441006 0.0383584 0.228257 0.0909136 -0.0918118 -0.252737 -0.294217 0.0146709 -0.0364246 0.0764953 -0.148163 -0.146194 -0.15509 -0.306288 -0.236846 0.173837 -0.212792 0.0903743 0.0306497 0.307223 -0.208637 0.0854203 0.216018 -0.109152 0.0668381 -0.245554 0.0405658 0.0803015 0.267547 0.299314 0.0895994 -0.173725 0.0656801 0.27533 -0.19649 0.185741 0.0841531 -0.180914 0.193799 
118 -0.247438 0.265264 0.268722 -0.11666 0.180139 -0.0738887 -0.103328 -0.271147 0.200952 0.111224 0.0210069 0.0456373 0.0171987 -0.112363 -0.150075 0.0441006 0.0383584 0.228257 0.0909136 -0.0918118 -0.252737 -0.294217 0.0146709 -0.0364246 0.0764953 -0.148163 -0.146194 -0.15509 -0.306288 -0.236846 0.173837 -0.212792 0.0903743 0.0306497 0.307223 -0.208637 0.0854203 0.216018 -0.109152 0.0668381 -0.245554 0.0405658 0.0803015 0.267547 0.299314 0.0895994 -0.173725 0.0656801 0.27533 -0.19649 0.185741 0.0841531 -0.180914 0.193799 
119 -0.247438 0.265264 0.268722 -0.11666 0.180139 -0.0738887 -0.103328 -0.271147 0.200952 0.111224 0.0210069 0.0456373 0.0171987 -0.112363 -0.150075 0.0441006 0.0383584 0.228257 0.0909136 -0.0918118 -0.252737 -0.294217 0.0146709 -0.0364246 0.0764953 -0.148163 -0.146194 -0.15509 -0.306288 -0.236846 0.173837 -0.212792 0.0903743 0.0306497 0.307223 -0.208637 0.0854203 0.216018 -0.109152 0.0668381 -0.245554 0.0405658 0.0803015 0.267547 0.299314 0.0895994 -0.173725 0.0656801 0.27533 -0.19649 0.185741 0.0841531 -0.180914 0.193799 
120 -0.247438 0.265264 0.268722 -0.11666 0.180139 -0.0738887 -0.103328 -0.271147 0.200952 0.111224 0.0210069 0.0456373 0.0171987 -0.112363 -0.150075 0.0441006 0.0383584 0.228257 0.0909136 -0.0918118 -0.252737 -0.294217 0.0146709 -0.0364246 0.0764953 -0.148163 -0.146194 -0.15509 -0.306288 -0.236846 0.173837 -0.212792 0.0903743 0.0306497 0.307223 -0.208637 0.0854203 0.216018 -0.109152 0.0668381 -0.245554 0.0405658 0.0803015 0.267547 0.299314 0.0895994 -0.173725 0.0656801 0.27533 -0.19649 0.185741 0.0841531 -0.180914 0.193799 
121 -0.247438 0.265264 0.268722 -0.11666 0.180139 -0.0738887 -0.103328 -0.271147 0.200952 0.111224 0.0210069 0.0456373 0.0171987 -0.112363 -0.150075 0.0441006 0.0383584 0.228257 0.0909136 -0.0918118 -0.252737 -0.294217 0.0146709 -0.0364246 0.0764953 -0.148163 -0.146194 -0.15509 -0.306288 -0.236846 0.173837 -0.212792 0.0903743 0.0306497 0.307223 -0.208637 0.0854203 0.216018 -0.109152 0.0668381 -0.245554 0.0405658 0.0803015 0.267547 0.299314 0.0895994 -0.173725 0.0656801 0.27533 -0.19649 0.185741 0.0841531 -0.180914 0.193799 
122 -0.247438 0.265264 0.268722 -0.11666 0.180139 -0.0738887 -0.103328 -0.271147 0.200952 0.111224 0.0210069 0.0456373 0.0171987 -0.112363 -0.150075 0.0441006 0.0383584 0.228257 0.0909136 -0.0918118 -0.252737 -0.294217 0.0146709 -0.0364246 0.0764953 -0.148163 -0.146194 -0.15509 -0.306288 -0.236846 0.173837 -0.212792 0.0903743 0.0306497 0.307223 -0.208637 0.0854203 0.216018 -0.109152 0.0668381 -0.245554 0.0405658 0.0803015 0.267547 0.299314 0.0895994 -0.173725 0.0656801 0.27533 -0.19649 0.185741 0.0841531 -0.180914 0.193799 
123 -0.247438 0.265264 0.268722 -0.11666 0.180139 -0.0738887 -0.103328 -0.271147 0.200952 0.111224 0.0210069 0.0456373 0.0171987 -0.112363 -0.150075 0.0441006 0.0383584 0.228257 0.0909136 -0.0918118 -0.252737 -0.294217 0.0146709 -0.0364246 0.0764953 -0.148163 -0.146194 -0.15509 -0.306288 -0.236846 0.173837 -0.212792 0.0903743 0.0306497 0.307223 -0.208637 0.0854203 0.216018 -0.109152 0.0668381 -0.245554 0.0405658 0.0803015 0.267547 0.299314 0.0895994 -0.173725 0.0656801 0.27533 -0.19649 0.185741 0.0841531 -0.180914 0.193799 
124 -0.247438 0.265264 0.268722 -0.11666 0.180139 -0.0738887 -0.103328 -0.271147 0.200952 0.111224 0.0210069 0.0456373 0.0171987 -0.112363 -0.150075 0.0441006 0.0383584 0.228257 0.0909136 -0.0918118 -0.252737 -0.294217 0.0146709 -0.0364246 0.0764953 -0.148163 -0.146194 -0.15509 -0.306288 -0.236846 0.173837 -0.212792 0.0903743 0.0306497 0.307223 -0.208637 0.0854203 0.216018 -0.109152 0.0668381 -0.245554 0.0405658 0.0803015 0.267547 0.299314 0.0895994 -0.173725 0.0656801 0.27533 -0.19649 0.185741 0.0841531 -0.180914 0.193799 
125 -0.247438 0.265264 0.268722 -0.11666 0.180139 -0.0738887 -0.103328 -0.271147 0.200952 0.111224 0.0210069 0.0456373 0.0171987 -0.112363 -0.150075 0.0441006 0.0383584 0.228257 0.0909136 -0.0918118 -0.252737 -0.294217 0.0146709 -0.0364246 0.0764953 -0.148163 -0.146194 -0.15509 -0.306288 -0.236846 0.173837 -0.212792 0.0903743 0.0306497 0.307223 -0.208637 0.0854203 0.216018 -0.109152 0.0668381 -0.245554 0.0405658 0.0803015 0.267547 0.299314 0.0895994 -0.173725 0.0656801 0.27533 -0.19649 0.185741 0.0841531 -0.180914 0.193799 
126 -0.247438 0.265264 -0.11666 0.180139 -0.103328 -0.271147 0.111224 0.0210069 0.0171987 -0.112363 0.0441006 0.0383584 0.0909136 -0.0918118 -0.294217 0.0146709 0.0764953 -0.148163 -0.15509 -0.306288 0.173837 -0.212792 0.0306497 0.307223 0.0854203 0.216018 0.0668381 -0.245554 0.0803015 0.267547 0.0895994 -0.173725 0.27533 -0.19649 0.0841531 -0.180914 
127 -0.247438 -0.11666 -0.103328 0.111224 0.0171987 0.0441006 0.0909136 -0.294217 0.0764953 -0.15509 0.173837 0.0306497 0.0854203 0.0668381 0.0803015 0.0895994 0.27533 0.0841531 
128 0.268722 -0.0738887 0.200952 0.0456373 -0.150075 0.228257 -0.252737 -0.0364246 -0.146194 -0.236846 0.0903743 -0.208637 -0.109152 0.0405658 0.299314 0.0656801 0.185741 0.193799 
129 0.265264 0.268722 0.180139 -0.0738887 -0.271147 0.200952 0.0210069 0.0456373 -0.112363 -0.150075 0.0383584 0.228257 -0.0918118 -0.252737 0.0146709 -0.0364246 -0.148163 -0.146194 -0.306288 -0.236846 -0.212792 0.0903743 0.307223 -0.208637 0.216018 -0.109152 -0.245554 0.0405658 0.267547 0.299314 -0.173725 0.0656801 -0.19649 0.185741 -0.180914 0.193799 
130 -0.247438 0.265264 0.268722 -0.11666 0.180139 -0.0738887 -0.103328 -0.271147 0.200952 0.111224 0.0210069 0.0456373 0.0171987 -0.112363 -0.150075 0.0441006 0.0383584 0.228257 0.0909136 -0.0918118 -0.252737 -0.294217 0.0146709 -0.0364246 0.0764953 -0.148163 -0.146194 -0.15509 -0.306288 -0.236846 0.173837 -0.212792 0.0903743 0.0306497 0.307223 -0.208637 0.0854203 0.216018 -0.109152 0.0668381 -0.245554 0.0405658 0.0803015 0.267547 0.299314 0.0895994 -0.173725 0.0656801 0.27533 -0.19649 0.185741 0.0841531 -0.180914 0.193799 
131 -0.247438 0.265264 0.268722 -0.11666 0.180139 -0.0738887 -0.103328 -0.271147 0.200952 0.111224 0.0210069 0.0456373 0.0171987 -0.112363 -0.150075 0.0441006 0.0383584 0.228257 0.0909136 -0.0918118 -0.252737 -0.294217 0.0146709 -0.0364246 0.0764953 -0.148163 -0.146194 -0.15509 -0.306288 -0.236846 0.173837 -0.212792 0.0903743 0.0306497 0.307223 -0.208637 0.0854203 0.216018 -0.109152 0.0668381 -0.245554 0.0405658 0.0803015 0.267547 0.299314 0.0895994 -0.173725 0.0656801 0.27533 -0.19649 0.185741 0.0841531 -0.180914 0.193799 
132 -0.247438 0.265264 0.268722 -0.11666 0.180139 -0.0738887 -0.103328 -0.271147 0.200952 0.111224 0.0210069 0.0456373 0.0171987 -0.112363 -0.150075 0.0441006 0.0383584 0.228257 0.0909136 -0.0918118 -0.252737 -0.294217 0.0146709 -0.0364246 0.0764953 -0.148163 -0.146194 -0.15509 -0.306288 -0.236846 0.173837 -0.212792 0.0903743 0.0306497 0.307223 -0.208637 0.0854203 0.216018 -0.109152 0.0668381 -0.245554 0.0405658 0.0803015 0.267547 0.299314 0.0895994 -0.173725 0.0656801 0.27533 -0.19649 0.185741 0.0841531 -0.180914 0.193799 
133 -0.247438 0.265264 0.268722 -0.11666 0.180139 -0.0738887 -0.103328 -0.271147 0.200952 0.111224 0.0210069 0.0456373 0.0171987 -0.112363 -0.150075 0.0441006 0.0383584 0.228257 0.0909136 -0.0918118 -0.252737 -0.294217 0.0146709 -0.0364246 0.0764953 -0.148163 -0.146194 -0.15509 -0.306288 -0.236846 0.173837 -0.212792 0.0903743 0.0306497 0.307223 -0.208637 0.0854203 0.216018 -0.109152 0.0668381 -0.245554 0.0405658 0.0803015 0.267547 0.299314 0.0895994 -0.173725 0.0656801 0.27533 -0.19649 0.185741 0.0841531 -0.180914 0.193799 
134 -0.247438 0.265264 0.268722 -0.11666 0.180139 -0.0738887 -0.103328 -0.271147 0.200952 0.111224 0.0210069 0.0456373 0.0171987 -0.112363 -0.150075 0.0441006 0.0383584 0.228257 0.0909136 -0.0918118 -0.252737 -0.294217 0.0146709 -0.0364246 0.0764953 -0.148163 -0.146194 -0.15509 -0.306288 -0.236846 0.173837 -0.212792 0.0903743 0.0306497 0.307223 -0.208637 0.0854203 0.216018 -0.109152 0.0668381 -0.245554 0.0405658 0.0803015 0.267547 0.299314 0.0895994 -0.173725 0.0656801 0.27533 -0.19649 0.185741 0.0841531 -0.180914 0.193799 
135 -0.247438 0.265264 0.268722 -0.11666 0.180139 -0.0738887 -0.103328 -0.271147 0.200952 0.111224 0.0210069 0.0456373 0.0171987 -0.112363 -0.150075 0.0441006 0.0383584 0.228257 0.0909136 -0.0918118 -0.252737 -0.294217 0.0146709 -0.0364246 0.0764953 -0.148163 -0.146194 -0.15509 -0.306288 -0.236846 0.173837 -0.212792 0.0903743 0.0306497 0.307223 -0.208637 0.0854203 0.216018 -0.109152 0.0668381 -0.245554 0.0405658 0.0803015 0.267547 0.299314 0.0895994 -0.173725 0.0656801 0.27533 -0.19649 0.185741 0.0841531 -0.180914 0.193799 
136 -0.247438 0.265264 0.268722 -0.11666 0.180139 -0.0738887 -0.103328 -0.271147 0.200952 0.111224 0.0210069 0.0456373 0.0171987 -0.112363 -0.150075 0.0441006 0.0383584 0.228257 0.0909136 -0.0918118 -0.252737 -0.294217 0.0146709 -0.0364246 0.0764953 -0.148163 -0.146194 -0.15509 -0.306288 -0.236846 0.173837 -0.212792 0.0903743 0.0306497 0.307223 -0.208637 0.0854203 0.216018 -0.109152 0.0668381 -0.245554 0.0405658 0.0803015 0.267547 0.299314 0.0895994 -0.173725 0.0656801 0.27533 -0.19649 0.185741 0.0841531 -0.180914 0.193799 
137 -0.247438 0.265264 0.268722 -0.11666 0.180139 -0.0738887 -0.103328 -0.271147 0.200952 0.111224 0.0210069 0.0456373 0.0171987 -0.112363 -0.150075 0.0441006 0.0383584 0.228257 0.0909136 -0.0918118 -0.252737 -0.294217 0.0146709 -0.0364246 0.0764953 -0.148163 -0.146194 -0.15509 -0.306288 -0.236846 0.173837 -0.212792 0.0903743 0.0306497 0.307223 -0.208637 0.0854203 0.216018 -0.109152 0.0668381 -0.245554 0.0405658 0.0803015 0.267547 0.299314 0.0895994 -0.173725 0.0656801 0.27533 -0.19649 0.185741 0.0841531 -0.180914 0.193799 
138 -0.247438 0.265264 0.268722 -0.11666 0.180139 -0.0738887 -0.103328 -0.271147 0.200952 0.111224 0.0210069 0.0456373 0.0171987 -0.112363 -0.150075 0.0441006 0.0383584 0.228257 0.0909136 -0.0918118 -0.252737 -0.294217 0.0146709 -0.0364246 0.0764953 -0.148163 -0.146194 -0.15509 -0.306288 -0.236846 0.173837 -0.212792 0.0903743 0.0306497 0.307223 -0.208637 0.0854203 0.216018 -0.109152 0.0668381 -0.245554 0.0405658 0.0803015 0.267547 0.299314 0.0895994 -0.173725 0.0656801 0.27533 -0.19649 0.185741 0.0841531 -0.180914 0.193799 
139 -0.247438 0.265264 0.268722 -0.11666 0.180139 -0.0738887 -0.103328 -0.271147 0.200952 0.111224 0.0210069 0.0456373 0.0171987 -0.112363 -0.150075 0.0441006 0.0383584 0.228257 0.0909136 -0.0918118 -0.252737 -0.294217 0.0146709 -0.0364246 0.0764953 -0.148163 -0.146194 -0.15509 -0.306288 -0.236846 0.173837 -0.212792 0.0903743 0.0306497 0.307223 -0.208637 0.0854203 0.216018 -0.109152 0.0668381 -0.245554 0.0405658 0.0803015 0.267547 0.299314 0.0895994 -0.173725 0.0656801 0.27533 -0.19649 0.185741 0.0841531 -0.180914 0.193799 
140 -0.247438 0.265264 0.268722 -0.11666 0.180139 -0.0738887 -0.103328 -0.271147 0.200952 0.111224 0.0210069 0.0456373 0.0171987 -0.112363 -0.150075 0.0441006 0.0383584 0.228257 0.0909136 -0.0918118 -0.252737 -0.294217 0.0146709 -0.0364246 0.0764953 -0.148163 -0.146194 -0.15509 -0.306288 -0.236846 0.173837 -0.212792 0.0903743 0.0306497 0.307223 -0.208637 0.0854203 0.216018 -0.109152 0.0668381 -0.245554 0.0405658 0.0803015 0.267547 0.299314 0.0895994 -0.173725 0.0656801 0.27533 -0.19649 0.185741 0.0841531 -0.180914 0.193799 
141 -0.247438 0.265264 0.268722 -0.11666 0.180139 -0.0738887 -0.103328 -0.271147 0.200952 0.111224 0.0210069 0.0456373 0.0171987 -0.112363 -0.150075 0.0441006 0.0383584 0.228257 0.0909136 -0.0918118 -0.252737 -0.294217 0.0146709 -0.0364246 0.0764953 -0.148163 -0.146194 -0.15509 -0.306288 -0.236846 0.173837 -0.212792 0.0903743 0.0306497 0.307223 -0.208637 0.0854203 0.216018 -0.109152 0.0668381 -0.245554 0.0405658 0.0803015 0.267547 0.299314 0.0895994 -0.173725 0.0656801 0.27533 -0.19649 0.185741 0.0841531 -0.180914 0.193799 
142 -0.247438 0.265264 0.268722 -0.11666 0.180139 -0.0738887 -0.103328 -0.271147 0.200952 0.111224 0.0210069 0.0456373 0.0171987 -0.112363 -0.150075 0.0441006 0.0383584 0.228257 0.0909136 -0.0918118 -0.252737 -0.294217 0.0146709 -0.0364246 0.0764953 -0.148163 -0.146194 -0.15509 -0.306288 -0.236846 0.173837 -0.212792 0.0903743 0.0306497 0.307223 -0.208637 0.0854203 0.216018 -0.109152 0.0668381 -0.245554 0.0405658 0.0803015 0.267547 0.299314 0.0895994 -0.173725 0.0656801 0.27533 -0.19649 0.185741 0.0841531 -0.180914 0.193799 
143 -0.247438 0.265264 0.268722 -0.11666 0.180139 -0.0738887 -0.103328 -0.271147 0.200952 0.111224 0.0210069 0.0456373 0.0171987 -0.112363 -0.150075 0.0441006 0.0383584 0.228257 0.0909136 -0.0918118 -0.252737 -0.294217 0.0146709 -0.0364246 0.0764953 -0.148163 -0.146194 -0.15509 -0.306288 -0.236846 0.173837 -0.212792 0.0903743 0.0306497 0.307223 -0.208637 0.0854203 0.216018 -0.109152 0.0668381 -0.245554 0.0405658 0.0803015 0.267547 0.299314 0.0895994 -0.173725 0.0656801 0.27533 -0.19649 0.185741 0.0841531 -0.180914 0.193799 
144 -0.247438 0.265264 0.268722 -0.11666 0.180139 -0.0738887 -0.103328 -0.271147 0.200952 0.111224 0.0210069 0.0456373 0.0171987 -0.112363 -0.150075 0.0441006 0.0383584 0.228257 0.0909136 -0.0918118 -0.252737 -0.294217 0.0146709 -0.0364246 0.0764953 -0.148163 -0.146194 -0.15509 -0.306288 -0.236846 0.173837 -0.212792 0.0903743 0.0306497 0.307223 -0.208637 0.0854203 0.216018 -0.109152 0.0668381 -0.245554 0.0405658 0.0803015 0.267547 0.299314 0.0895994 -0.173725 0.0656801 0.27533 -0.19649 0.185741 0.0841531 -0.180914 0.193799 
145 -0.247438 0.265264 0.268722 -0.11666 0.180139 -0.0738887 -0.103328 -0.271147 0.200952 0.111224 0.0210069 0.0456373 0.0171987 -0.112363 -0.150075 0.0441006 0.0383584 0.228257 0.0909136 -0.0918118 -0.252737 -0.294217 0.0146709 -0.0364246 0.0764953 -0.148163 -0.146194 -0.15509 -0.306288 -0.236846 0.173837 -0.212792 0.0903743 0.0306497 0.307223 -0.208637 0.0854203 0.216018 -0.109152 0.0668381 -0.245554 0.0405658 0.0803015 0.267547 0.299314 0.0895994 -0.173725 0.0656801 0.27533 -0.19649 0.185741 0.0841531 -0.180914 0.193799 
146 -0.247438 0.265264 0.268722 -0.11666 0.180139 -0.0738887 -0.103328 -0.271147 0.200952 0.111224 0.0210069 0.0456373 0.0171987 -0.112363 -0.150075 0.0441006 0.0383584 0.228257 0.0909136 -0.0918118 -0.252737 -0.294217 0.0146709 -0.0364246 0.0764953 -0.148163 -0.146194 -0.15509 -0.306288 -0.236846 0.173837 -0.212792 0.0903743 0.0306497 0.307223 -0.208637 0.0854203 0.216018 -0.109152 0.0668381 -0.245554 0.0405658 0.0803015 0.267547 0.299314 0.0895994 -0.173725 0.0656801 0.27533 -0.19649 0.185741 0.0841531 -0.180914 0.193799 
147 -0.247438 0.265264 0.268722 -0.11666 0.180139 -0.0738887 -0.103328 -0.271147 0.200952 0.111224 0.0210069 0.0456373 0.0171987 -0.112363 -0.150075 0.0441006 0.0383584 0.228257 0.0909136 -0.0918118 -0.252737 -0.294217 0.0146709 -0.0364246 0.0764953 -0.148163 -0.146194 -0.15509 -0.306288 -0.236846 0.173837 -0.212792 0.0903743 0.0306497 0.307223 -0.208637 0.0854203 0.216018 -0.109152 0.0668381 -0.245554 0.0405658 0.0803015 0.267547 0.299314 0.0895994 -0.173725 0.0656801 0.27533 -0.19649 0.185741 0.0841531 -0.180914 0.193799 
148 -0.247438 0.265264 0.268722 -0.11666 0.180139 -0.0738887 -0.103328 -0.271147 0.200952 0.111224 0.0210069 0.0456373 0.0171987 -0.112363 -0.150075 0.0441006 0.0383584 0.228257 0.0909136 -0.0918118 -0.252737 -0.294217 0.0146709 -0.0364246 0.0764953 -0.148163 -0.146194 -0.15509 -0.306288 -0.236846 0.173837 -0.212792 0.0903743 0.0306497 0.307223 -0.208637 0.0854203 0.216018 -0.109152 0.0668381 -0.245554 0.0405658 0.0803015 0.267547 0.299314 0.0895994 -0.173725 0.0656801 0.27533 -0.19649 0.185741 0.0841531 -0.180914 0.193799 
149 -0.247438 0.265264 0.268722 -0.11666 0.180139 -0.0738887 -0.103328 -0.271147 0.200952 0.111224 0.0210069 0.0456373 0.0171987 -0.112363 -0.150075 0.0441006 0.0383584 0.228257 0.0909136 -0.0918118 -0.252737 -0.294217 0.0146709 -0.0364246 0.0764953 -0.148163 -0.146194 -0.15509 -0.306288 -0.236846 0.173837 -0.212792 0.0903743 0.0306497 0.307223 -0.208637 0.0854203 0.216018 -0.109152 0.0668381 -0.245554 0.0405658 0.0803015 0.267547 0.299314 0.0895994 -0.173725 0.0656801 0.27533 -0.19649 0.185741 0.0841531 -0.180914 0.193799 
150 -0.247438 0.265264 0.268722 -0.11666 0.180139 -0.0738887 -0.103328 -0.271147 0.200952 0.111224 0.0210069 0.0456373 0.0171987 -0.112363 -0.150075 0.0441006 0.0383584 0.228257 0.0909136 -0.0918118 -0.252737 -0.294217 0.0146709 -0.0364246 0.0764953 -0.148163 -0.146194 -0.15509 -0.306288 -0.236846 0.173837 -0.212792 0.0903743 0.0306497 0.307223 -0.208637 0.0854203 0.216018 -0.109152 0.0668381 -0.245554 0.0405658 0.0803015 0.267547 0.299314 0.0895994 -0.173725 0.0656801 0.27533 -0.19649 0.185741 0.0841531 -0.180914 0.193799 
151 -0.247438 0.265264 0.268722 -0.11666 0.180139 -0.0738887 -0.103328 -0.271147 0.200952 0.111224 0.0210069 0.0456373 0.0171987 -0.112363 -0.150075 0.0441006 0.0383584 0.228257 0.0909136 -0.0918118 -0.252737 -0.294217 0.0146709 -0.0364246 0.0764953 -0.148163 -0.146194 -0.15509 -0.306288 -0.236846 0.173837 -0.212792 0.0903743 0.0306497 0.307223 -0.208637 0.0854203 0.216018 -0.109152 0.0668381 -0.245554 0.0405658 0.0803015 0.267547 0.299314 0.0895994 -0.173725 0.0656801 0.27533 -0.19649 0.185741 0.0841531 -0.180914 0.193799 
152 -0.247438 0.265264 0.268722 -0.11666 0.180139 -0.0738887 -0.103328 -0.271147 0.200952 0.111224 0.0210069 0.0456373 0.0171987 -0.112363 -0.150075 0.0441006 0.0383584 0.228257 0.0909136 -0.0918118 -0.252737 -0.294217 0.0146709 -0.0364246 0.0764953 -0.148163 -0.146194 -0.15509 -0.306288 -0.236846 0.173837 -0.212792 0.0903743 0.0306497 0.307223 -0.208637 0.0854203 0.216018 -0.109152 0.0668381 -0.245554 0.0405658 0.0803015 0.267547 0.299314 0.0895994 -0.173725 0.0656801 0.27533 -0.19649 0.185741 0.0841531 -0.180914 0.193799 
153 -0.247438 0.265264 0.268722 -0.11666 0.180139 -0.0738887 -0.103328 -0.271147 0.200952 0.111224 0.0210069 0.0456373 0.0171987 -0.112363 -0.150075 0.0441006 0.0383584 0.228257 0.0909136 -0.0918118 -0.252737 -0.294217 0.0146709 -0.0364246 0.0764953 -0.148163 -0.146194 -0.15509 -0.306288 -0.236846 0.173837 -0.212792 0.0903743 0.0306497 0.307223 -0.208637 0.0854203 0.216018 -0.109152 0.0668381 -0.245554 0.0405658 0.0803015 0.267547 0.299314 0.0895994 -0.173725 0.0656801 0.27533 -0.19649 0.185741 0.0841531 -0.180914 0.193799 
154 -0.247438 0.265264 0.268722 -0.11666 0.180139 -0.0738887 -0.103328 -0.271147 0.200952 0.111224 0.0210069 0.0456373 0.0171987 -0.112363 -0.150075 0.0441006 0.0383584 0.228257 0.0909136 -0.0918118 -0.252737 -0.294217 0.0146709 -0.0364246 0.0764953 -0.148163 -0.146194 -0.15509 -0.306288 -0.236846 0.173837 -0.212792 0.0903743 0.0306497 0.307223 -0.208637 0.0854203 0.216018 -0.109152 0.0668381 -0.245554 0.0405658 0.0803015 0.267547 0.299314 0.0895994 -0.173725 0.0656801 0.27533 -0.19649 0.185741 0.0841531 -0.180914 0.193799 
155 -0.247438 0.265264 0.268722 -0.11666 0.180139 -0.0738887 -0.103328 -0.271147 0.200952 0.111224 0.0210069 0.0456373 0.0171987 -0.112363 -0.150075 0.0441006 0.0383584 0.228257 0.0909136 -0.0918118 -0.252737 -0.294217 0.0146709 -0.0364246 0.0764953 -0.148163 -0.146194 -0.15509 -0.306288 -0.236846 0.173837 -0.212792 0.0903743 0.0306497 0.307223 -0.208637 0.0854203 0.216018 -0.109152 0.0668381 -0.245554 0.0405658 0.0803015 0.267547 0.299314 0.0895994 -0.173725 0.0656801 0.27533 -0.19649 0.185741 0.0841531 -0.180914 0.193799 
156 -0.247438 0.265264 0.268722 -0.11666 0.180139 -0.0738887 -0.103328 -0.271147 0.200952 0.111224 0.0210069 0.0456373 0.0171987 -0.112363 -0.150075 0.0441006 0.0383584 0.228257 0.0909136 -0.0918118 -0.252737 -0.294217 0.0146709 -0.0364246 0.0764953 -0.148163 -0.146194 -0.15509 -0.306288 -0.236846 0.173837 -0.212792 0.0903743 0.0306497 0.307223 -0.208637 0.0854203 0.216018 -0.109152 0.0668381 -0.245554 0.0405658 0.0803015 0.267547 0.299314 0.0895994 -0.173725 0.0656801 0.27533 -0.19649 0.185741 0.0841531 -0.180914 0.193799 
157 -0.247438 0.265264 0.268722 -0.11666 0.180139 -0.0738887 -0.103328 -0.271147 0.200952 0.111224 0.0210069 0.0456373 0.0171987 -0.112363 -0.150075 0.0441006 0.0383584 0.228257 0.0909136 -0.0918118 -0.252737 -0.294217 0.0146709 -0.0364246 0.0764953 -0.148163 -0.146194 -0.15509 -0.306288 -0.236846 0.173837 -0.212792 0.0903743 0.0306497 0.307223 -0.208637 0.0854203 0.216018 -0.109152 0.0668381 -0.245554 0.0405658 0.0803015 0.267547 0.299314 0.0895994 -0.173725 0.0656801 0.27533 -0.19649 0.185741 0.0841531 -0.180914 0.193799 
158 -0.247438 0.265264 -0.11666 0.180139 -0.103328 -0.271147 0.111224 0.0210069 0.0171987 -0.112363 0.0441006 0.0383584 0.0909136 -0.0918118 -0.294217 0.0146709 0.0764953 -0.148163 -0.15509 -0.306288 0.173837 -0.212792 0.0306497 0.307223 0.0854203 0.216018 0.0668381 -0.245554 0.0803015 0.267547 0.0895994 -0.173725 0.27533 -0.19649 0.0841531 -0.180914 
159 -0.247438 -0.11666 -0.103328 0.111224 0.0171987 0.0441006 0.0909136 -0.294217 0.0764953 -0.15509 0.173837 0.0306497 0.0854203 0.0668381 0.0803015 0.0895994 0.27533 0.0841531 
160 0.268722 -0.0738887 0.200952 0.0456373 -0.150075 0.228257 -0.252737 -0.0364246 -0.146194 -0.236846 0.0903743 -0.208637 -0.109152 0.0405658 0.299314 0.0656801 0.185741 0.193799 
161 0.265264 0.268722 0.180139 -0.0738887 -0.271147 0.200952 0.0210069 0.0456373 -0.112363 -0.150075 0.0383584 0.228257 -0.0918118 -0.252737 0.0146709 -0.0364246 -0.148163 -0.146194 -0.306288 -0.236846 -0.212792 0.0903743 0.307223 -0.208637 0.216018 -0.109152 -0.245554 0.0405658 0.267547 0.299314 -0.173725 0.0656801 -0.19649 0.185741 -0.180914 0.193799 
162 -0.247438 0.265264 0.268722 -0.11666 0.180139 -0.0738887 -0.103328 -0.271147 0.200952 0.111224 0.0210069 0.0456373 0.0171987 -0.112363 -0.150075 0.0441006 0.0383584 0.228257 0.0909136 -0.0918118 -0.252737 -0.294217 0.0146709 -0.0364246 0.0764953 -0.148163 -0.146194 -0.15509 -0.306288 -0.236846 0.173837 -0.212792 0.0903743 0.0306497 0.307223 -0.208637 0.0854203 0.216018 -0.109152 0.0668381 -0.245554 0.0405658 0.0803015 0.267547 0.299314 0.0895994 -0.173725 0.0656801 0.27533 -0.19649 0.185741 0.0841531 -0.180914 0.193799 
163 -0.247438 0.265264 0.268722 -0.11666 0.180139 -0.0738887 -0.103328 -0.271147 0.200952 0.111224 0.0210069 0.0456373 0.0171987 -0.112363 -0.150075 0.0441006 0.0383584 0.228257 0.0909136 -0.0918118 -0.252737 -0.294217 0.0146709 -0.0364246 0.0764953 -0.148163 -0.146194 -0.15509 -0.306288 -0.236846 0.173837 -0.212792 0.0903743 0.0306497 0.307223 -0.208637 0.0854203 0.216018 -0.109152 0.0668381 -0.245554 0.0405658 0.0803015 0.267547 0.299314 0.0895994 -0.173725 0.0656801 0.27533 -0.19649 0.185741 0.0841531 -0.180914 0.193799 
164 -0.247438 0.265264 0.268722 -0.11666 0.180139 -0.0738887 -0.103328 -0.271147 0.200952 0.111224 0.0210069 0.0456373 0.0171987 -0.112363 -0.150075 0.0441006 0.0383584 0.228257 0.0909136 -0.0918118 -0.252737 -0.294217 0.0146709 -0.0364246 0.0764953 -0.148163 -0.146194 -0.15509 -0.306288 -0.236846 0.173837 -0.212792 0.0903743 0.0306497 0.307223 -0.208637 0.0854203 0.216018 -0.109152 0.0668381 -0.245554 0.0405658 0.0803015 0.267547 0.299314 0.0895994 -0.173725 0.0656801 0.27533 -0.19649 0.185741 0.0841531 -0.180914 0.193799 
165 -0.247438 0.265264 0.268722 -0.11666 0.180139 -0.0738887 -0.103328 -0.271147 0.200952 0.111224 0.0210069 0.0456373 0.0171987 -0.112363 -0.150075 0.0441006 0.0383584 0.228257 0.0909136 -0.0918118 -0.252737 -0.294217 0.0146709 -0.0364246 0.0764953 -0.148163 -0.146194 -0.15509 -0.306288 -0.236846 0.173837 -0.212792 0.0903743 0.0306497 0.307223 -0.208637 0.0854203 0.216018 -0.109152 0.0668381 -0.245554 0.0405658 0.0803015 0.267547 0.299314 0.0895994 -0.173725 0.0656801 0.27533 -0.19649 0.185741 0.0841531 -0.180914 0.193799 
166 -0.247438 0.265264 0.268722 -0.11666 0.180139 -0.0738887 -0.103328 -0.271147 0.200952 0.111224 0.0210069 0.0456373 0.0171987 -0.112363 -0.150075 0.0441006 0.0383584 0.228257 0.0909136 -0.0918118 -0.252737 -0.294217 0.0146709 -0.0364246 0.0764953 -0.148163 -0.146194 -0.15509 -0.306288 -0.236846 0.173837 -0.212792 0.0903743 0.0306497 0.307223 -0.208637 0.0854203 0.216018 -0.109152 0.0668381 -0.245554 0.0405658 0.0803015 0.267547 0.299314 0.0895994 -0.173725 0.0656801 0.27533 -0.19649 0.185741 0.0841531 -0.180914 0.193799 
167 -0.247438 0.265264 0.268722 -0.11666 0.180139 -0.0738887 -0.103328 -0.271147 0.200952 0.111224 0.0210069 0.0456373 0.0171987 -0.112363 -0.150075 0.0441006 0.0383584 0.228257 0.0909136 -0.0918118 -0.252737 -0.294217 0.0146709 -0.0364246 0.0764953 -0.148163 -0.146194 -0.15509 -0.306288 -0.236846 0.173837 -0.212792 0.0903743 0.0306497 0.307223 -0.208637 0.0854203 0.216018 -0.109152 0.0668381 -0.245554 0.0405658 0.0803015 0.267547 0.299314 0.0895994 -0.173725 0.0656801 0.27533 -0.19649 0.185741 0.0841531 -0.180914 0.193799 
168 -0.247438 0.265264 0.268722 -0.11666 0.180139 -0.0738887 -0.103328 -0.271147 0.200952 0.111224 0.0210069 0.0456373 0.0171987 -0.112363 -0.150075 0.0441006 0.0383584 0.228257 0.0909136 -0.0918118 -0.252737 -0.294217 0.0146709 -0.0364246 0.0764953 -0.148163 -0.146194 -0.15509 -0.306288 -0.236846 0.173837 -0.212792 0.0903743 0.0306497 0.307223 -0.208637 0.0854203 0.216018 -0.109152 0.0668381 -0.245554 0.0405658 0.0803015 0.267547 0.299314 0.0895994 -0.173725 0.0656801 0.27533 -0.19649 0.185741 0.0841531 -0.180914 0.193799 
169 -0.247438 0.265264 0.268722 -0.11666 0.180139 -0.0738887 -0.103328 -0.271147 0.200952 0.111224 0.0210069 0.0456373 0.0171987 -0.112363 -0.150075 0.0441006 0.0383584 0.228257 0.0909136 -0.0918118 -0.252737 -0.294217 0.0146709 -0.0364246 0.0764953 -0.148163 -0.146194 -0.15509 -0.306288 -0.236846 0.173837 -0.212792 0.0903743 0.0306497 0.307223 -0.208637 0.0854203 0.216018 -0.109152 0.0668381 -0.245554 0.0405658 0.0803015 0.267547 0.299314 0.0895994 -0.173725 0.0656801 0.27533 -0.19649 0.185741 0.0841531 -0.180914 0.193799 
170 -0.247438 0.265264 0.268722 -0.11666 0.180139 -0.0738887 -0.103328 -0.271147 0.200952 0.111224 0.0210069 0.0456373 0.0171987 -0.112363 -0.150075 0.0441006 0.0383584 0.228257 0.0909136 -0.0918118 -0.252737 -0.294217 0.0146709 -0.0364246 0.0764953 -0.148163 -0.146194 -0.15509 -0.306288 -0.236846 0.173837 -0.212792 0.0903743 0.0306497 0.307223 -0.208637 0.0854203 0.216018 -0.109152 0.0668381 -0.245554 0.0405658 0.0803015 0.267547 0.299314 0.0895994 -0.173725 0.0656801 0.27533 -0.19649 0.185741 0.0841531 -0.180914 0.193799 
171 -0.247438 0.265264 0.268722 -0.11666 0.180139 -0.0738887 -0.103328 -0.271147 0.200952 0.111224 0.0210069 0.0456373 0.0171987 -0.112363 -0.150075 0.0441006 0.0383584 0.228257 0.0909136 -0.0918118 -0.252737 -0.294217 0.0146709 -0.0364246 0.0764953 -0.148163 -0.146194 -0.15509 -0.306288 -0.236846 0.173837 -0.212792 0.0903743 0.0306497 0.307223 -0.208637 0.0854203 0.216018 -0.109152 0.0668381 -0.245554 0.0405658 0.0803015 0.267547 0.299314 0.0895994 -0.173725 0.0656801 0.27533 -0.19649 0.185741 0.0841531 -0.180914 0.193799 
172 -0.247438 0.265264 0.268722 -0.11666 0.180139 -0.0738887 -0.103328 -0.271147 0.200952 0.111224 0.0210069 0.0456373 0.0171987 -0.112363 -0.150075 0.0441006 0.0383584 0.228257 0.0909136 -0.0918118 -0.252737 -0.294217 0.0146709 -0.0364246 0.0764953 -0.148163 -0.146194 -0.15509 -0.306288 -0.236846 0.173837 -0.212792 0.0903743 0.0306497 0.307223 -0.208637 0.0854203 0.216018 -0.109152 0.0668381 -0.245554 0.0405658 0.0803015 0.267547 0.299314 0.0895994 -0.173725 0.0656801 0.27533 -0.19649 0.185741 0.0841531 -0.180914 0.193799 
173 -0.247438 0.265264 0.268722 -0.11666 0.180139 -0.0738887 -0.103328 -0.271147 0.200952 0.111224 0.0210069 0.0456373 0.0171987 -0.112363 -0.150075 0.0441006 0.0383584 0.228257 0.0909136 -0.0918118 -0.252737 -0.294217 0.0146709 -0.0364246 0.0764953 -0.148163 -0.146194 -0.15509 -0.306288 -0.236846 0.173837 -0.212792 0.0903743 0.0306497 0.307223 -0.208637 0.0854203 0.216018 -0.109152 0.0668381 -0.245554 0.0405658 0.0803015 0.267547 0.299314 0.0895994 -0.173725 0.0656801 0.27533 -0.19649 0.185741 0.0841531 -0.180914 0.193799 
174 -0.247438 0.265264 0.268722 -0.11666 0.180139 -0.0738887 -0.103328 -0.271147 0.200952 0.111224 0.0210069 0.0456373 0.0171987 -0.112363 -0.150075 0.0441006 0.0383584 0.228257 0.0909136 -0.0918118 -0.252737 -0.294217 0.0146709 -0.0364246 0.0764953 -0.148163 -0.146194 -0.15509 -0.306288 -0.236846 0.173837 -0.212792 0.0903743 0.0306497 0.307223 -0.208637 0.0854203 0.216018 -0.109152 0.0668381 -0.245554 0.0405658 0.0803015 0.267547 0.299314 0.0895994 -0.173725 0.0656801 0.27533 -0.19649 0.185741 0.0841531 -0.180914 0.193799 
175 -0.247438 0.265264 0.268722 -0.11666 0.180139 -0.0738887 -0.103328 -0.271147 0.200952 0.111224 0.0210069 0.0456373 0.0171987 -0.112363 -0.150075 0.0441006 0.0383584 0.228257 0.0909136 -0.0918118 -0.252737 -0.294217 0.0146709 -0.0364246 0.0764953 -0.148163 -0.146194 -0.15509 -0.306288 -0.236846 0.173837 -0.212792 0.0903743 0.0306497 0.307223 -0.208637 0.0854203 0.216018 -0.109152 0.0668381 -0.245554 0.0405658 0.0803015 0.267547 0.299314 0.0895994 -0.173725 0.0656801 0.27533 -0.19649 0.185741 0.0841531 -0.180914 0.193799 
176 -0.247438 0.265264 0.268722 -0.11666 0.180139 -0.0738887 -0.103328 -0.271147 0.200952 0.111224 0.0210069 0.0456373 0.0171987 -0.112363 -0.150075 0.0441006 0.0383584 0.228257 0.0909136 -0.0918118 -0.252737 -0.294217 0.0146709 -0.0364246 0.0764953 -0.148163 -0.146194 -0.15509 -0.306288 -0.236846 0.173837 -0.212792 0.0903743 0.0306497 0.307223 -0.208637 0.0854203 0.216018 -0.109152 0.0668381 -0.245554 0.0405658 0.0803015 0.267547 0.299314 0.0895994 -0.173725 0.0656801 0.27533 -0.19649 0.185741 0.0841531 -0.180914 0.193799 
177 -0.247438 0.265264 0.268722 -0.11666 0.180139 -0.0738887 -0.103328 -0.271147 0.200952 0.111224 0.0210069 0.0456373 0.0171987 -0.112363 -0.150075 0.0441006 0.0383584 0.228257 0.0909136 -0.0918118 -0.252737 -0.294217 0.0146709 -0.0364246 0.0764953 -0.148163 -0.146194 -0.15509 -0.306288 -0.236846 0.173837 -0.212792 0.0903743 0.0306497 0.307223 -0.208637 0.0854203 0.216018 -0.109152 0.0668381 -0.245554 0.0405658 0.0803015 0.267547 0.299314 0.0895994 -0.173725 0.0656801 0.27533 -0.19649 0.185741 0.0841531 -0.180914 0.193799 
178 -0.247438 0.265264 0.268722 -0.11666 0.180139 -0.0738887 -0.103328 -0.271147 0.200952 0.111224 0.0210069 0.0456373 0.0171987 -0.112363 -0.150075 0.0441006 0.0383584 0.228257 0.0909136 -0.0918118 -0.252737 -0.294217 0.0146709 -0.0364246 0.0764953 -0.148163 -0.146194 -0.15509 -0.306288 -0.236846 0.173837 -0.212792 0.0903743 0.0306497 0.307223 -0.208637 0.0854203 0.216018 -0.109152 0.0668381 -0.245554 0.0405658 0.0803015 0.267547 0.299314 0.0895994 -0.173725 0.0656801 0.27533 -0.19649 0.185741 0.0841531 -0.180914 0.193799 
179 -0.247438 0.265264 0.268722 -0.11666 0.180139 -0.0738887 -0.103328 -0.271147 0.200952 0.111224 0.0210069 0.0456373 0.0171987 -0.112363 -0.150075 0.0441006 0.0383584 0.228257 0.0909136 -0.0918118 -0.252737 -0.294217 0.0146709 -0.0364246 0.0764953 -0.148163 -0.146194 -0.15509 -0.306288 -0.236846 0.173837 -0.212792 0.0903743 0.0306497 0.307223 -0.208637 0.0854203 0.216018 -0.109152 0.0668381 -0.245554 0.0405658 0.0803015 0.267547 0.299314 0.0895994 -0.173725 0.0656801 0.27533 -0.19649 0.185741 0.0841531 -0.180914 0.193799 
180 -0.247438 0.265264 0.268722 -0.11666 0.180139 -0.0738887 -0.103328 -0.271147 0.200952 0.111224 0.0210069 0.0456373 0.0171987 -0.112363 -0.150075 0.0441006 0.0383584 0.228257 0.0909136 -0.0918118 -0.252737 -0.294217 0.0146709 -0.0364246 0.0764953 -0.148163 -0.146194 -0.15509 -0.306288 -0.236846 0.173837 -0.212792 0.0903743 0.0306497 0.307223 -0.208637 0.0854203 0.216018 -0.109152 0.0668381 -0.245554 0.0405658 0.0803015 0.267547 0.299314 0.0895994 -0.173725 0.0656801 0.27533 -0.19649 0.185741 0.0841531 -0.180914 0.193799 
181 -0.247438 0.265264 0.268722 -0.11666 0.180139 -0.0738887 -0.103328 -0.271147 0.200952 0.111224 0.0210069 0.0456373 0.0171987 -0.112363 -0.150075 0.0441006 0.0383584 0.228257 0.0909136 -0.0918118 -0.252737 -0.294217 0.0146709 -0.0364246 0.0764953 -0.148163 -0.146194 -0.15509 -0.306288 -0.236846 0.173837 -0.212792 0.0903743 0.0306497 0.307223 -0.208637 0.0854203 0.216018 -0.109152 0.0668381 -0.245554 0.0405658 0.0803015 0.267547 0.299314 0.0895994 -0.173725 0.0656801 0.27533 -0.19649 0.185741 0.0841531 -0.180914 0.193799 
182 -0.247438 0.265264 0.268722 -0.11666 0.180139 -0.0738887 -0.103328 -0.271147 0.200952 0.111224 0.0210069 0.0456373 0.0171987 -0.112363 -0.150075 0.0441006 0.0383584 0.228257 0.0909136 -0.0918118 -0.252737 -0.294217 0.0146709 -0.0364246 0.0764953 -0.148163 -0.146194 -0.15509 -0.306288 -0.236846 0.173837 -0.212792 0.0903743 0.0306497 0.307223 -0.208637 0.0854203 0.216018 -0.109152 0.0668381 -0.245554 0.0405658 0.0803015 0.267547 0.299314 0.0895994 -0.173725 0.0656801 0.27533 -0.19649 0.185741 0.0841531 -0.180914 0.193799 
183 -0.247438 0.265264 0.268722 -0.11666 0.180139 -0.0738887 -0.103328 -0.271147 0.200952 0.111224 0.0210069 0.0456373 0.0171987 -0.112363 -0.150075 0.0441006 0.0383584 0.228257 0.0909136 -0.0918118 -0.252737 -0.294217 0.0146709 -0.0364246 0.0764953 -0.148163 -0.146194 -0.15509 -0.306288 -0.236846 0.173837 -0.212792 0.0903743 0.0306497 0.307223 -0.208637 0.0854203 0.216018 -0.109152 0.0668381 -0.245554 0.0405658 0.0803015 0.267547 0.299314 0.0895994 -0.173725 0.0656801 0.27533 -0.19649 0.185741 0.0841531 -0.180914 0.193799 
184 -0.247438 0.265264 0.268722 -0.11666 0.180139 -0.0738887 -0.103328 -0.271147 0.200952 0.111224 0.0210069 0.0456373 0.0171987 -0.112363 -0.150075 0.0441006 0.0383584 0.228257 0.0909136 -0.0918118 -0.252737 -0.294217 0.0146709 -0.0364246 0.0764953 -0.148163 -0.146194 -0.15509 -0.306288 -0.236846 0.173837 -0.212792 0.0903743 0.0306497 0.307223 -0.208637 0.0854203 0.216018 -0.109152 0.0668381 -0.245554 0.0405658 0.0803015 0.267547 0.299314 0.0895994 -0.173725 0.0656801 0.27533 -0.19649 0.185741 0.0841531 -0.180914 0.193799 
185 -0.247438 0.265264 0.268722 -0.11666 0.180139 -0.0738887 -0.103328 -0.271147 0.200952 0.111224 0.0210069 0.0456373 0.0171987 -0.112363 -0.150075 0.0441006 0.0383584 0.228257 0.0909136 -0.0918118 -0.252737 -0.294217 0.0146709 -0.0364246 0.0764953 -0.148163 -0.146194 -0.15509 -0.306288 -0.236846 0.173837 -0.212792 0.0903743 0.0306497 0.307223 -0.208637 0.0854203 0.216018 -0.109152 0.0668381 -0.245554 0.0405658 0.0803015 0.267547 0.299314 0.0895994 -0.173725 0.0656801 0.27533 -0.19649 0.185741 0.0841531 -0.180914 0.193799 
186 -0.247438 0.265264 0.268722 -0.11666 0.180139 -0.0738887 -0.103328 -0.271147 0.200952 0.111224 0.0210069 0.0456373 0.0171987 -0.112363 -0.150075 0.0441006 0.0383584 0.228257 0.0909136 -0.0918118 -0.252737 -0.294217 0.0146709 -0.0364246 0.0764953 -0.148163 -0.146194 -0.15509 -0.306288 -0.236846 0.173837 -0.212792 0.0903743 0.0306497 0.307223 -0.208637 0.0854203 0.216018 -0.109152 0.0668381 -0.245554 0.0405658 0.0803015 0.267547 0.299314 0.0895994 -0.173725 0.0656801 0.27533 -0.19649 0.185741 0.0841531 -0.180914 0.193799 
187 -0.247438 0.265264 0.268722 -0.11666 0.180139 -0.0738887 -0.103328 -0.271147 0.200952 0.111224 0.0210069 0.0456373 0.0171987 -0.112363 -0.150075 0.0441006 0.0383584 0.228257 0.0909136 -0.0918118 -0.252737 -0.294217 0.0146709 -0.0364246 0.0764953 -0.148163 -0.146194 -0.15509 -0.306288 -0.236846 0.173837 -0.212792 0.0903743 0.0306497 0.307223 -0.208637 0.0854203 0.216018 -0.109152 0.0668381 -0.245554 0.0405658 0.0803015 0.267547 0.299314 0.0895994 -0.173725 0.0656801 0.27533 -0.19649 0.185741 0.0841531 -0.180914 0.193799 
188 -0.247438 0.265264 0.268722 -0.11666 0.180139 -0.0738887 -0.103328 -0.271147 0.200952 0.111224 0.0210069 0.0456373 0.0171987 -0.112363 -0.150075 0.0441006 0.0383584 0.228257 0.0909136 -0.0918118 -0.252737 -0.294217 0.0146709 -0.0364246 0.0764953 -0.148163 -0.146194 -0.15509 -0.306288 -0.236846 0.173837 -0.212792 0.0903743 0.0306497 0.307223 -0.208637 0.0854203 0.216018 -0.109152 0.0668381 -0.245554 0.0405658 0.0803015 0.267547 0.299314 0.0895994 -0.173725 0.0656801 0.27533 -0.19649 0.185741 0.0841531 -0.180914 0.193799 
189 -0.247438 0.265264 0.268722 -0.11666 0.180139 -0.0738887 -0.103328 -0.271147 0.200952 0.111224 0.0210069 0.0456373 0.0171987 -0.112363 -0.150075 0.0441006 0.0383584 0.228257 0.0909136 -0.0918118 -0.252737 -0.294217 0.0146709 -0.0364246 0.0764953 -0.148163 -0.146194 -0.15509 -0.306288 -0.236846 0.173837 -0.212792 0.0903743 0.0306497 0.307223 -0.208637 0.0854203 0.216018 -0.109152 0.0668381 -0.245554 0.0405658 0.0803015 0.267547 0.299314 0.0895994 -0.173725 0.0656801 0.27533 -0.19649 0.185741 0.0841531 -0.180914 0.193799 
190 -0.247438 0.265264 -0.11666 0.180139 -0.103328 -0.271147 0.111224 0.0210069 0.0171987 -0.112363 0.0441006 0.0383584 0.0909136 -0.0918118 -0.294217 0.0146709 0.0764953 -0.148163 -0.15509 -0.306288 0.173837 -0.212792 0.0306497 0.307223 0.0854203 0.216018 0.0668381 -0.245554 0.0803015 0.267547 0.0895994 -0.173725 0.27533 -0.19649 0.0841531 -0.180914 
191 -0.247438 -0.11666 -0.103328 0.111224 0.0171987 0.0441006 0.0909136 -0.294217 0.0764953 -0.15509 0.173837 0.0306497 0.0854203 0.0668381 0.0803015 0.0895994 0.27533 0.0841531 
192 0.268722 -0.0738887 0.200952 0.0456373 -0.150075 0.228257 -0.252737 -0.0364246 -0.146194 -0.236846 0.0903743 -0.208637 -0.109152 0.0405658 0.299314 0.0656801 0.185741 0.193799 
193 0.265264 0.268722 0.180139 -0.0738887 -0.271147 0.200952 0.0210069 0.0456373 -0.112363 -0.150075 0.0383584 0.228257 -0.0918118 -0.252737 0.0146709 -0.0364246 -0.148163 -0.146194 -0.306288 -0.236846 -0.212792 0.0903743 0.307223 -0.208637 0.216018 -0.109152 -0.245554 0.0405658 0.267547 0.299314 -0.173725 0.0656801 -0.19649 0.185741 -0.180914 0.193799 
194 -0.247438 0.265264 0.268722 -0.11666 0.180139 -0.0738887 -0.103328 -0.271147 0.200952 0.111224 0.0210069 0.0456373 0.0171987 -0.112363 -0.150075 0.0441006 0.0383584 0.228257 0.0909136 -0.0918118 -0.252737 -0.294217 0.0146709 -0.0364246 0.0764953 -0.148163 -0.146194 -0.15509 -0.306288 -0.236846 0.173837 -0.212792 0.0903743 0.0306497 0.307223 -0.208637 0.0854203 0.216018 -0.109152 0.0668381 -0.245554 0.0405658 0.0803015 0.267547 0.299314 0.0895994 -0.173725 0.0656801 0.27533 -0.19649 0.185741 0.0841531 -0.180914 0.193799 
195 -0.247438 0.265264 0.268722 -0.11666 0.180139 -0.0738887 -0.103328 -0.271147 0.200952 0.111224 0.0210069 0.0456373 0.0171987 -0.112363 -0.150075 0.0441006 0.0383584 0.228257 0.0909136 -0.0918118 -0.252737 -0.294217 0.0146709 -0.0364246 0.0764953 -0.148163 -0.146194 -0.15509 -0.306288 -0.236846 0.173837 -0.212792 0.0903743 0.0306497 0.307223 -0.208637 0.0854203 0.216018 -0.109152 0.0668381 -0.245554 0.0405658 0.0803015 0.267547 0.299314 0.0895994 -0.173725 0.0656801 0.27533 -0.19649 0.185741 0.0841531 -0.180914 0.193799 
196 -0.247438 0.265264 0.268722 -0.11666 0.180139 -0.0738887 -0.103328 -0.271147 0.200952 0.111224 0.0210069 0.0456373 0.0171987 -0.112363 -0.150075 0.0441006 0.0383584 0.228257 0.0909136 -0.0918118 -0.252737 -0.294217 0.0146709 -0.0364246 0.0764953 -0.148163 -0.146194 -0.15509 -0.306288 -0.236846 0.173837 -0.212792 0.0903743 0.0306497 0.307223 -0.208637 0.0854203 0.216018 -0.109152 0.0668381 -0.245554 0.0405658 0.0803015 0.267547 0.299314 0.0895994 -0.173725 0.0656801 0.27533 -0.19649 0.185741 0.0841531 -0.180914 0.193799 
197 -0.247438 0.265264 0.268722 -0.11666 0.180139 -0.0738887 -0.103328 -0.271147 0.200952 0.111224 0.0210069 0.0456373 0.0171987 -0.112363 -0.150075 0.0441006 0.0383584 0.228257 0.0909136 -0.0918118 -0.252737 -0.294217 0.0146709 -0.0364246 0.0764953 -0.148163 -0.146194 -0.15509 -0.306288 -0.236846 0.173837 -0.212792 0.0903743 0.0306497 0.307223 -0.208637 0.0854203 0.216018 -0.109152 0.0668381 -0.245554 0.0405658 0.0803015 0.267547 0.299314 0.0895994 -0.173725 0.0656801 0.27533 -0.19649 0.185741 0.0841531 -0.180914 0.193799 
198 -0.247438 0.265264 0.268722 -0.11666 0.180139 -0.0738887 -0.103328 -0.271147 0.200952 0.111224 0.0210069 0.0456373 0.0171987 -0.112363 -0.150075 0.0441006 0.0383584 0.228257 0.0909136 -0.0918118 -0.252737 -0.294217 0.0146709 -0.0364246 0.0764953 -0.148163 -0.146194 -0.15509 -0.306288 -0.236846 0.173837 -0.212792 0.0903743 0.0306497 0.307223 -0.208637 0.0854203 0.216018 -0.109152 0.0668381 -0.245554 0.0405658 0.0803015 0.267547 0.299314 0.0895994 -0.173725 0.0656801 0.27533 -0.19649 0.185741 0.0841531 -0.180914 0.193799 
199 -0.247438 0.265264 0.268722 -0.11666 0.180139 -0.0738887 -0.103328 -0.271147 0.200952 0.111224 0.0210069 0.0456373 0.0171987 -0.112363 -0.150075 0.0441006 0.0383584 0.228257 0.0909136 -0.0918118 -0.252737 -0.294217 0.0146709 -0.0364246 0.0764953 -0.148163 -0.146194 -0.15509 -0.306288 -0.236846 0.173837 -0.212792 0.0903743 0.0306497 0.307223 -0.208637 0.0854203 0.216018 -0.109152 0.0668381 -0.245554 0.0405658 0.0803015 0.267547 0.299314 0.0895994 -0.173725 0.0656801 0.27533 -0.19649 0.185741 0.0841531 -0.180914 0.193799 
200 -0.247438 0.265264 0.268722 -0.11666 0.180139 -0.0738887 -0.103328 -0.271147 0.200952 0.111224 0.0210069 0.0456373 0.0171987 -0.112363 -0.150075 0.0441006 0.0383584 0.228257 0.0909136 -0.0918118 -0.252737 -0.294217 0.0146709 -0.0364246 0.0764953 -0.148163 -0.146194 -0.15509 -0.306288 -0.236846 0.173837 -0.212792 0.0903743 0.0306497 0.307223 -0.208637 0.0854203 0.216018 -0.109152 0.0668381 -0.245554 0.0405658 0.0803015 0.267547 0.299314 0.0895994 -0.173725 0.0656801 0.27533 -0.19649 0.185741 0.0841531 -0.180914 0.193799 
201 -0.247438 0.265264 0.268722 -0.11666 0.180139 -0.0738887 -0.103328 -0.271147 0.200952 0.111224 0.0210069 0.0456373 0.0171987 -0.112363 -0.150075 0.0441006 0.0383584 0.228257 0.0909136 -0.0918118 -0.252737 -0.294217 0.0146709 -0.0364246 0.0764953 -0.148163 -0.146194 -0.15509 -0.306288 -0.236846 0.173837 -0.212792 0.0903743 0.0306497 0.307223 -0.208637 0.0854203 0.216018 -0.109152 0.0668381 -0.245554 0.0405658 0.0803015 0.267547 0.299314 0.0895994 -0.173725 0.0656801 0.27533 -0.19649 0.185741 0.0841531 -0.180914 0.193799 
202 -0.247438 0.265264 0.268722 -0.11666 0.180139 -0.0738887 -0.103328 -0.271147 0.200952 0.111224 0.0210069 0.0456373 0.0171987 -0.112363 -0.150075 0.0441006 0.0383584 0.228257 0.0909136 -0.0918118 -0.252737 -0.294217 0.0146709 -0.0364246 0.0764953 -0.148163 -0.146194 -0.15509 -0.306288 -0.236846 0.173837 -0.212792 0.0903743 0.0306497 0.307223 -0.208637 0.0854203 0.216018 -0.109152 0.0668381 -0.245554 0.0405658 0.0803015 0.267547 0.299314 0.0895994 -0.173725 0.0656801 0.27533 -0.19649 0.185741 0.0841531 -0.180914 0.193799 
203 -0.247438 0.265264 0.268722 -0.11666 0.180139 -0.0738887 -0.103328 -0.271147 0.200952 0.111224 0.0210069 0.0456373 0.0171987 -0.112363 -0.150075 0.0441006 0.0383584 0.228257 0.0909136 -0.0918118 -0.252737 -0.294217 0.0146709 -0.0364246 0.0764953 -0.148163 -0.146194 -0.15509 -0.306288 -0.236846 0.173837 -0.212792 0.0903743 0.0306497 0.307223 -0.208637 0.0854203 0.216018 -0.109152 0.0668381 -0.245554 0.0405658 0.0803015 0.267547 0.299314 0.0895994 -0.173725 0.0656801 0.27533 -0.19649 0.185741 0.0841531 -0.180914 0.193799 
204 -0.247438 0.265264 0.268722 -0.11666 0.180139 -0.0738887 -0.103328 -0.271147 0.200952 0.111224 0.0210069 0.0456373 0.0171987 -0.112363 -0.150075 0.0441006 0.0383584 0.228257 0.0909136 -0.0918118 -0.252737 -0.294217 0.0146709 -0.0364246 0.0764953 -0.148163 -0.146194 -0.15509 -0.306288 -0.236846 0.173837 -0.212792 0.0903743 0.0306497 0.307223 -0.208637 0.0854203 0.216018 -0.109152 0.0668381 -0.245554 0.0405658 0.0803015 0.267547 0.299314 0.0895994 -0.173725 0.0656801 0.27533 -0.19649 0.185741 0.0841531 -0.180914 0.193799 
205 -0.247438 0.265264 0.268722 -0.11666 0.180139 -0.0738887 -0.103328 -0.271147 0.200952 0.111224 0.0210069 0.0456373 0.0171987 -0.112363 -0.150075 0.0441006 0.0383584 0.228257 0.0909136 -0.0918118 -0.252737 -0.294217 0.0146709 -0.0364246 0.0764953 -0.148163 -0.146194 -0.15509 -0.306288 -0.236846 0.173837 -0.212792 0.0903743 0.0306497 0.307223 -0.208637 0.0854203 0.216018 -0.109152 0.0668381 -0.245554 0.0405658 0.0803015 0.267547 0.299314 0.0895994 -0.173725 0.0656801 0.27533 -0.19649 0.185741 0.0841531 -0.180914 0.193799 
206 -0.247438 0.265264 0.268722 -0.11666 0.180139 -0.0738887 -0.103328 -0.271147 0.200952 0.111224 0.0210069 0.0456373 0.0171987 -0.112363 -0.150075 0.0441006 0.0383584 0.228257 0.0909136 -0.0918118 -0.252737 -0.294217 0.0146709 -0.0364246 0.0764953 -0.148163 -0.146194 -0.15509 -0.306288 -0.236846 0.173837 -0.212792 0.0903743 0.0306497 0.307223 -0.208637 0.0854203 0.216018 -0.109152 0.0668381 -0.245554 0.0405658 0.0803015 0.267547 0.299314 0.0895994 -0.173725 0.0656801 0.27533 -0.19649 0.185741 0.0841531 -0.180914 0.193799 
207 -0.247438 0.265264 0.268722 -0.11666 0.180139 -0.0738887 -0.103328 -0.271147 0.200952 0.111224 0.0210069 0.0456373 0.0171987 -0.112363 -0.150075 0.0441006 0.0383584 0.228257 0.0909136 -0.0918118 -0.252737 -0.294217 0.0146709 -0.0364246 0.0764953 -0.148163 -0.146194 -0.15509 -0.306288 -0.236846 0.173837 -0.212792 0.0903743 0.0306497 0.307223 -0.208637 0.0854203 0.216018 -0.109152 0.0668381 -0.245554 0.0405658 0.0803015 0.267547 0.299314 0.0895994 -0.173725 0.0656801 0.27533 -0.19649 0.185741 0.0841531 -0.180914 0.193799 
208 -0.247438 0.265264 0.268722 -0.11666 0.180139 -0.0738887 -0.103328 -0.271147 0.200952 0.111224 0.0210069 0.0456373 0.0171987 -0.112363 -0.150075 0.0441006 0.0383584 0.228257 0.0909136 -0.0918118 -0.252737 -0.294217 0.0146709 -0.0364246 0.0764953 -0.148163 -0.146194 -0.15509 -0.306288 -0.236846 0.173837 -0.212792 0.0903743 0.0306497 0.307223 -0.208637 0.0854203 0.216018 -0.109152 0.0668381 -0.245554 0.0405658 0.0803015 0.267547 0.299314 0.0895994 -0.173725 0.0656801 0.27533 -0.19649 0.185741 0.0841531 -0.180914 0.193799 
209 -0.247438 0.265264 0.268722 -0.11666 0.180139 -0.0738887 -0.103328 -0.271147 0.200952 0.111224 0.0210069 0.0456373 0.0171987 -0.112363 -0.150075 0.0441006 0.0383584 0.228257 0.0909136 -0.0918118 -0.252737 -0.294217 0.0146709 -0.0364246 0.0764953 -0.148163 -0.146194 -0.15509 -0.306288 -0.236846 0.173837 -0.212792 0.0903743 0.0306497 0.307223 -0.208637 0.0854203 0.216018 -0.109152 0.0668381 -0.245554 0.0405658 0.0803015 0.267547 0.299314 0.0895994 -0.173725 0.0656801 0.27533 -0.19649 0.185741 0.0841531 -0.180914 0.193799 
210 -0.247438 0.265264 0.268722 -0.11666 0.180139 -0.0738887 -0.103328 -0.271147 0.200952 0.111224 0.0210069 0.0456373 0.0171987 -0.112363 -0.150075 0.0441006 0.0383584 0.228257 0.0909136 -0.0918118 -0.252737 -0.294217 0.0146709 -0.0364246 0.0764953 -0.148163 -0.146194 -0.15509 -0.306288 -0.236846 0.173837 -0.212792 0.0903743 0.0306497 0.307223 -0.208637 0.0854203 0.216018 -0.109152 0.0668381 -0.245554 0.0405658 0.0803015 0.267547 0.299314 0.0895994 -0.173725 0.0656801 0.27533 -0.19649 0.185741 0.0841531 -0.180914 0.193799 
211 -0.247438 0.265264 0.268722 -0.11666 0.180139 -0.0738887 -0.103328 -0.271147 0.200952 0.111224 0.0210069 0.0456373 0.0171987 -0.112363 -0.150075 0.0441006 0.0383584 0.228257 0.0909136 -0.0918118 -0.252737 -0.294217 0.0146709 -0.0364246 0.0764953 -0.148163 -0.146194 -0.15509 -0.306288 -0.236846 0.173837 -0.212792 0.0903743 0.0306497 0.307223 -0.208637 0.0854203 0.216018 -0.109152 0.0668381 -0.245554 0.0405658 0.0803015 0.267547 0.299314 0.0895994 -0.173725 0.0656801 0.27533 -0.19649 0.185741 0.0841531 -0.180914 0.193799 
212 -0.247438 0.265264 0.268722 -0.11666 0.180139 -0.0738887 -0.103328 -0.271147 0.200952 0.111224 0.0210069 0.0456373 0.0171987 -0.112363 -0.150075 0.0441006 0.0383584 0.228257 0.0909136 -0.0918118 -0.252737 -0.294217 0.0146709 -0.0364246 0.0764953 -0.148163 -0.146194 -0.15509 -0.306288 -0.236846 0.173837 -0.212792 0.0903743 0.0306497 0.307223 -0.208637 0.0854203 0.216018 -0.109152 0.0668381 -0.245554 0.0405658 0.0803015 0.267547 0.299314 0.0895994 -0.173725 0.0656801 0.27533 -0.19649 0.185741 0.0841531 -0.180914 0.193799 
213 -0.247438 0.265264 0.268722 -0.11666 0.180139 -0.0738887 -0.103328 -0.271147 0.200952 0.111224 0.0210069 0.0456373 0.0171987 -0.112363 -0.150075 0.0441006 0.0383584 0.228257 0.0909136 -0.0918118 -0.252737 -0.294217 0.0146709 -0.0364246 0.0764953 -0.148163 -0.146194 -0.15509 -0.306288 -0.236846 0.173837 -0.212792 0.0903743 0.0306497 0.307223 -0.208637 0.0854203 0.216018 -0.109152 0.0668381 -0.245554 0.0405658 0.0803015 0.267547 0.299314 0.0895994 -0.173725 0.0656801 0.27533 -0.19649 0.185741 0.0841531 -0.180914 0.193799 
214 -0.247438 0.265264 0.268722 -0.11666 0.180139 -0.0738887 -0.103328 -0.271147 0.200952 0.111224 0.0210069 0.0456373 0.0171987 -0.112363 -0.150075 0.0441006 0.0383584 0.228257 0.0909136 -0.0918118 -0.252737 -0.294217 0.0146709 -0.0364246 0.0764953 -0.148163 -0.146194 -0.15509 -0.306288 -0.236846 0.173837 -0.212792 0.0903743 0.0306497 0.307223 -0.208637 0.0854203 0.216018 -0.109152 0.0668381 -0.245554 0.0405658 0.0803015 0.267547 0.299314 0.0895994 -0.173725 0.0656801 0.27533 -0.19649 0.185741 0.0841531 -0.180914 0.193799 
215 -0.247438 0.265264 0.268722 -0.11666 0.180139 -0.0738887 -0.103328 -0.271147 0.200952 0.111224 0.0210069 0.0456373 0.0171987 -0.112363 -0.150075 0.0441006 0.0383584 0.228257 0.0909136 -0.0918118 -0.252737 -0.294217 0.0146709 -0.0364246 0.0764953 -0.148163 -0.146194 -0.15509 -0.306288 -0.236846 0.173837 -0.212792 0.0903743 0.0306497 0.307223 -0.208637 0.0854203 0.216018 -0.109152 0.0668381 -0.245554 0.0405658 0.0803015 0.267547 0.299314 0.0895994 -0.173725 0.0656801 0.27533 -0.19649 0.185741 0.0841531 -0.180914 0.193799 
216 -0.247438 0.265264 0.268722 -0.11666 0.180139 -0.0738887 -0.103328 -0.271147 0.200952 0.111224 0.0210069 0.0456373 0.0171987 -0.112363 -0.150075 0.0441006 0.0383584 0.228257 0.0909136 -0.0918118 -0.252737 -0.294217 0.0146709 -0.0364246 0.0764953 -0.148163 -0.146194 -0.15509 -0.306288 -0.236846 0.173837 -0.212792 0.0903743 0.0306497 0.307223 -0.208637 0.0854203 0.216018 -0.109152 0.0668381 -0.245554 0.0405658 0.0803015 0.267547 0.299314 0.0895994 -0.173725 0.0656801 0.27533 -0.19649 0.185741 0.0841531 -0.180914 0.193799 
217 -0.247438 0.265264 0.268722 -0.11666 0.180139 -0.0738887 -0.103328 -0.271147 0.200952 0.111224 0.0210069 0.0456373 0.0171987 -0.112363 -0.150075 0.0441006 0.0383584 0.228257 0.0909136 -0.0918118 -0.252737 -0.294217 0.0146709 -0.0364246 0.0764953 -0.148163 -0.146194 -0.15509 -0.306288 -0.236846 0.173837 -0.212792 0.0903743 0.0306497 0.307223 -0.208637 0.0854203 0.216018 -0.109152 0.0668381 -0.245554 0.0405658 0.0803015 0.267547 0.299314 0.0895994 -0.173725 0.0656801 0.27533 -0.19649 0.185741 0.0841531 -0.180914 0.193799 
218 -0.247438 0.265264 0.268722 -0.11666 0.180139 -0.0738887 -0.103328 -0.271147 0.200952 0.111224 0.0210069 0.0456373 0.0171987 -0.112363 -0.150075 0.0441006 0.0383584 0.228257 0.0909136 -0.0918118 -0.252737 -0.294217 0.0146709 -0.0364246 0.0764953 -0.148163 -0.146194 -0.15509 -0.306288 -0.236846 0.173837 -0.212792 0.0903743 0.0306497 0.307223 -0.208637 0.0854203 0.216018 -0.109152 0.0668381 -0.245554 0.0405658 0.0803015 0.267547 0.299314 0.0895994 -0.173725 0.0656801 0.27533 -0.19649 0.185741 0.0841531 -0.180914 0.193799 
219 -0.247438 0.265264 0.268722 -0.11666 0.180139 -0.0738887 -0.103328 -0.271147 0.200952 0.111224 0.0210069 0.0456373 0.0171987 -0.112363 -0.150075 0.0441006 0.0383584 0.228257 0.0909136 -0.0918118 -0.252737 -0.294217 0.0146709 -0.0364246 0.0764953 -0.148163 -0.146194 -0.15509 -0.306288 -0.236846 0.173837 -0.212792 0.0903743 0.0306497 0.307223 -0.208637 0.0854203 0.216018 -0.109152 0.0668381 -0.245554 0.0405658 0.0803015 0.267547 0.299314 0.0895994 -0.173725 0.0656801 0.27533 -0.19649 0.185741 0.0841531 -0.180914 0.193799 
220 -0.247438 0.265264 0.268722 -0.11666 0.180139 -0.0738887 -0.103328 -0.271147 0.200952 0.111224 0.0210069 0.0456373 0.0171987 -0.112363 -0.150075 0.0441006 0.0383584 0.228257 0.0909136 -0.0918118 -0.252737 -0.294217 0.0146709 -0.0364246 0.0764953 -0.148163 -0.146194 -0.15509 -0.306288 -0.236846 0.173837 -0.212792 0.0903743 0.0306497 0.307223 -0.208637 0.0854203 0.216018 -0.109152 0.0668381 -0.245554 0.0405658 0.0803015 0.267547 0.299314 0.0895994 -0.173725 0.0656801 0.27533 -0.19649 0.185741 0.0841531 -0.180914 0.193799 
221 -0.247438 0.265264 0.268722 -0.11666 0.180139 -0.0738887 -0.103328 -0.271147 0.200952 0.111224 0.0210069 0.0456373 0.0171987 -0.112363 -0.150075 0.0441006 0.0383584 0.228257 0.0909136 -0.0918118 -0.252737 -0.294217 0.0146709 -0.0364246 0.0764953 -0.148163 -0.146194 -0.15509 -0.306288 -0.236846 0.173837 -0.212792 0.0903743 0.0306497 0.307223 -0.208637 0.0854203 0.216018 -0.109152 0.0668381 -0.245554 0.0405658 0.0803015 0.267547 0.299314 0.0895994 -0.173725 0.0656801 0.27533 -0.19649 0.185741 0.0841531 -0.180914 0.193799 
222 -0.247438 0.265264 -0.11666 0.180139 -0.103328 -0.271147 0.111224 0.0210069 0.0171987 -0.112363 0.0441006 0.0383584 0.0909136 -0.0918118 -0.294217 0.0146709 0.0764953 -0.148163 -0.15509 -0.306288 0.173837 -0.212792 0.0306497 0.307223 0.0854203 0.216018 0.0668381 -0.245554 0.0803015 0.267547 0.0895994 -0.173725 0.27533 -0.19649 0.0841531 -0.180914 
223 -0.247438 -0.11666 -0.103328 0.111224 0.0171987 0.0441006 0.0909136 -0.294217 0.0764953 -0.15509 0.173837 0.0306497 0.0854203 0.0668381 0.0803015 0.0895994 0.27533 0.0841531 
224 0.268722 -0.0738887 0.200952 0.0456373 -0.150075 0.228257 -0.252737 -0.0364246 -0.146194 -0.236846 0.0903743 -0.208637 -0.109152 0.0405658 0.299314 0.0656801 0.185741 0.193799 
225 0.265264 0.268722 0.180139 -0.0738887 -0.271147 0.200952 0.0210069 0.0456373 -0.112363 -0.150075 0.0383584 0.228257 -0.0918118 -0.252737 0.0146709 -0.0364246 -0.148163 -0.146194 -0.306288 -0.236846 -0.212792 0.0903743 0.307223 -0.208637 0.216018 -0.109152 -0.245554 0.0405658 0.267547 0.299314 -0.173725 0.0656801 -0.19649 0.185741 -0.180914 0.193799 
226 -0.247438 0.265264 0.268722 -0.11666 0.180139 -0.0738887 -0.103328 -0.271147 0.200952 0.111224 0.0210069 0.0456373 0.0171987 -0.112363 -0.150075 0.0441006 0.0383584 0.228257 0.0909136 -0.0918118 -0.252737 -0.294217 0.0146709 -0.0364246 0.0764953 -0.148163 -0.146194 -0.15509 -0.306288 -0.236846 0.173837 -0.212792 0.0903743 0.0306497 0.307223 -0.208637 0.0854203 0.216018 -0.109152 0.0668381 -0.245554 0.0405658 0.0803015 0.267547 0.299314 0.0895994 -0.173725 0.0656801 0.27533 -0.19649 0.185741 0.0841531 -0.180914 0.193799 
227 -0.247438 0.265264 0.268722 -0.11666 0.180139 -0.0738887 -0.103328 -0.271147 0.200952 0.111224 0.0210069 0.0456373 0.0171987 -0.112363 -0.150075 0.0441006 0.0383584 0.228257 0.0909136 -0.0918118 -0.252737 -0.294217 0.0146709 -0.0364246 0.0764953 -0.148163 -0.146194 -0.15509 -0.306288 -0.236846 0.173837 -0.212792 0.0903743 0.0306497 0.307223 -0.208637 0.0854203 0.216018 -0.109152 0.0668381 -0.245554 0.0405658 0.0803015 0.267547 0.299314 0.0895994 -0.173725 0.0656801 0.27533 -0.19649 0.185741 0.0841531 -0.180914 0.193799 
228 -0.247438 0.265264 0.268722 -0.11666 0.180139 -0.0738887 -0.103328 -0.271147 0.200952 0.111224 0.0210069 0.0456373 0.0171987 -0.112363 -0.150075 0.0441006 0.0383584 0.228257 0.0909136 -0.0918118 -0.252737 -0.294217 0.0146709 -0.0364246 0.0764953 -0.148163 -0.146194 -0.15509 -0.306288 -0.236846 0.173837 -0.212792 0.0903743 0.0306497 0.307223 -0.208637 0.0854203 0.216018 -0.109152 0.0668381 -0.245554 0.0405658 0.0803015 0.267547 0.299314 0.0895994 -0.173725 0.0656801 0.27533 -0.19649 0.185741 0.0841531 -0.180914 0.193799 
229 -0.247438 0.265264 0.268722 -0.11666 0.180139 -0.0738887 -0.103328 -0.271147 0.200952 0.111224 0.0210069 0.0456373 0.0171987 -0.112363 -0.150075 0.0441006 0.0383584 0.228257 0.0909136 -0.0918118 -0.252737 -0.294217 0.0146709 -0.0364246 0.0764953 -0.148163 -0.146194 -0.15509 -0.306288 -0.236846 0.173837 -0.212792 0.0903743 0.0306497 0.307223 -0.208637 0.0854203 0.216018 -0.109152 0.0668381 -0.245554 0.0405658 0.0803015 0.267547 0.299314 0.0895994 -0.173725 0.0656801 0.27533 -0.19649 0.185741 0.0841531 -0.180914 0.193799 
230 -0.247438 0.265264 0.268722 -0.11666 0.180139 -0.0738887 -0.103328 -0.271147 0.200952 0.111224 0.0210069 0.0456373 0.0171987 -0.112363 -0.150075 0.0441006 0.0383584 0.228257 0.0909136 -0.0918118 -0.252737 -0.294217 0.0146709 -0.0364246 0.0764953 -0.148163 -0.146194 -0.15509 -0.306288 -0.236846 0.173837 -0.212792 0.0903743 0.0306497 0.307223 -0.208637 0.0854203 0.216018 -0.109152 0.0668381 -0.245554 0.0405658 0.0803015 0.267547 0.299314 0.0895994 -0.173725 0.0656801 0.27533 -0.19649 0.185741 0.0841531 -0.180914 0.193799 
231 -0.247438 0.265264 0.268722 -0.11666 0.180139 -0.0738887 -0.103328 -0.271147 0.200952 0.111224 0.0210069 0.0456373 0.0171987 -0.112363 -0.150075 0.0441006 0.0383584 0.228257 0.0909136 -0.0918118 -0.252737 -0.294217 0.0146709 -0.0364246 0.0764953 -0.148163 -0.146194 -0.15509 -0.306288 -0.236846 0.173837 -0.212792 0.0903743 0.0306497 0.307223 -0.208637 0.0854203 0.216018 -0.109152 0.0668381 -0.245554 0.0405658 0.0803015 0.267547 0.299314 0.0895994 -0.173725 0.0656801 0.27533 -0.19649 0.185741 0.0841531 -0.180914 0.193799 
232 -0.247438 0.265264 0.268722 -0.11666 0.180139 -0.0738887 -0.103328 -0.271147 0.200952 0.111224 0.0210069 0.0456373 0.0171987 -0.112363 -0.150075 0.0441006 0.0383584 0.228257 0.0909136 -0.0918118 -0.252737 -0.294217 0.0146709 -0.0364246 0.0764953 -0.148163 -0.146194 -0.15509 -0.306288 -0.236846 0.173837 -0.212792 0.0903743 0.0306497 0.307223 -0.208637 0.0854203 0.216018 -0.109152 0.0668381 -0.245554 0.0405658 0.0803015 0.267547 0.299314 0.0895994 -0.173725 0.0656801 0.27533 -0.19649 0.185741 0.0841531 -0.180914 0.193799 
